2.6664466857910156
2.5955052375793457
4.561922550201416
1.629319190979004
0.5071830749511719
-3.111586093902588
-2.7639973163604736
-3.480755090713501
0.19297778606414795
-2.400968074798584
1.3606369495391846
-2.329306125640869
3.6842763423919678
-4.44861364364624
4.611279487609863
0.9940999746322632
4.7638773918151855
-1.0285276174545288
3.3126723766326904
-1.634218692779541
-2.2738022804260254
0.18974244594573975
0.40726959705352783
-3.1493139266967773
-3.986919403076172
-1.3090527057647705
3.1374716758728027
2.056823253631592
-2.1459197998046875
1.046895980834961
4.867043495178223
-2.0930771827697754
-2.488570213317871
3.696514368057251
-4.452773094177246
2.8918302059173584
4.321063995361328
-4.510544776916504
-4.134528636932373
-0.3658992052078247
0.613178014755249
2.847365140914917
-2.4455082416534424
-1.0572892427444458
-3.427983522415161
-0.31014561653137207
3.922779083251953
-4.759476661682129
-0.03066718578338623
-3.304337978363037
0.9124070405960083
-1.2888383865356445
0.8249986171722412
3.7050628662109375
-3.8052475452423096
2.3134703636169434
1.7884737253189087
-4.7948150634765625
-3.440321683883667
3.178394317626953
0.304529070854187
0.8696532249450684
-2.499814033508301
-2.780489444732666
-3.634887933731079
1.4482921361923218
2.085005044937134
0.09577631950378418
2.3273940086364746
-0.7718580961227417
3.3700175285339355
4.160425662994385
-1.602359414100647
2.526639699935913
-1.5692424774169922
-0.43301522731781006
-2.0250611305236816
4.850649356842041
-3.91109037399292
3.2918004989624023
2.1823489665985107
2.4864578247070312
1.3232660293579102
-4.861714839935303
-1.8184947967529297
4.307586669921875
-0.251123309135437
-2.3664145469665527
3.896953582763672
-4.162907123565674
-3.7528438568115234
2.5920748710632324
4.726858615875244
-3.67680025100708
4.445868015289307
1.6366994380950928
-0.12347817420959473
4.431915283203125
3.173771381378174
-0.5701828002929688
-4.158831596374512
0.6844449043273926
2.924065589904785
-4.782976150512695
-1.9633406400680542
4.933562755584717
-1.2912404537200928
1.6340458393096924
3.9142954349517822
-4.1491804122924805
-4.7910356521606445
-4.172110080718994
-0.58677077293396
-1.1390870809555054
-1.158474087715149
0.7151049375534058
-2.8531413078308105
-4.6075968742370605
-1.9308525323867798
-2.2855782508850098
-1.8351125717163086
2.3030364513397217
-4.940715312957764
3.276820182800293
-2.111259698867798
-2.6224911212921143
-3.492013931274414
1.877892017364502
1.3241147994995117
-2.214204788208008
0.23106634616851807
-2.6236934661865234
-2.118598222732544
0.13798296451568604
3.9103198051452637
2.4754703044891357
4.084417343139648
-3.5103654861450195
-1.6279226541519165
4.806638240814209
4.653580665588379
2.459334135055542
-4.044482231140137
-4.609448432922363
2.4758057594299316
-4.9575042724609375
4.166406631469727
-3.902879238128662
3.91565203666687
-3.8254852294921875
0.9571278095245361
2.5310893058776855
2.9076147079467773
-2.550304412841797
3.956153392791748
-4.495589256286621
-0.043877363204956055
4.384310245513916
-4.099336624145508
1.048128604888916
-2.752821445465088
-0.6270259618759155
-0.20238041877746582
-3.4412317276000977
-0.2355515956878662
-0.9160536527633667
3.1249022483825684
0.114021897315979
2.854849100112915
-1.0661667585372925
2.140286445617676
4.833211421966553
-3.1124444007873535
-2.15535044670105
-2.671600580215454
-0.8404642343521118
-0.6897449493408203
-4.50833797454834
4.701889991760254
3.519388437271118
-2.1268396377563477
0.3805500268936157
-3.6182641983032227
0.5413651466369629
-2.5582921504974365
-4.564962863922119
-2.8070366382598877
-0.8775246143341064
-2.4388365745544434
2.3254454135894775
2.2873764038085938
-3.5036964416503906
1.7100584506988525
1.924983263015747
-2.3131771087646484
-0.8715695142745972
-0.5448615550994873
-4.649405002593994
0.5528050661087036
4.935604095458984
4.000312805175781
3.7418711185455322
-3.363985538482666
0.8504664897918701
3.9390885829925537
-0.12615442276000977
-2.7710318565368652
1.1428242921829224
-4.561276912689209
-3.08699893951416
-1.1961489915847778
0.8275842666625977
0.20038187503814697
-0.9579616785049438
2.9148542881011963
2.760708808898926
2.980057716369629
1.635844111442566
-2.2902660369873047
-2.873431444168091
-2.622023820877075
0.4127812385559082
2.1403913497924805
3.5874414443969727
-0.8008134365081787
-3.837730884552002
-0.4204791784286499
2.6898252964019775
-3.3242721557617188
4.818310737609863
4.713654041290283
-2.3501462936401367
-3.0269205570220947
-1.2279975414276123
0.24730265140533447
-3.5250253677368164
-1.0361987352371216
0.26331841945648193
2.8547072410583496
-1.2190556526184082
-4.446234226226807
-1.261063814163208
-1.0274970531463623
0.5481338500976562
1.7368924617767334
2.3902435302734375
4.237246513366699
2.501333236694336
0.9097659587860107
-2.7181875705718994
-2.2836761474609375
-4.478678226470947
-4.793813705444336
2.039684772491455
-3.5794882774353027
-3.6109619140625
1.1529326438903809
-0.1088249683380127
3.064108371734619
3.765446662902832
-0.22734522819519043
4.740215301513672
2.577786445617676
2.3192214965820312
-2.63036847114563
2.1374011039733887
0.6852871179580688
-0.31614840030670166
-3.8374626636505127
-3.4189581871032715
1.914130449295044
-1.0346627235412598
1.2396049499511719
2.0899927616119385
-1.009848713874817
-1.0025936365127563
-4.898487091064453
-4.147434234619141
0.7147955894470215
-4.224653720855713
3.4528489112854004
3.8162052631378174
-0.5272310972213745
4.470644950866699
-4.43770170211792
0.08406519889831543
1.5771377086639404
0.27146339416503906
1.1242592334747314
-1.9225102663040161
-3.8780558109283447
3.799476146697998
-0.6588852405548096
3.66435170173645
-0.9473609924316406
-1.0308563709259033
-1.8422257900238037
-1.6948997974395752
-4.762811183929443
-3.5155029296875
-4.998363494873047
2.100386619567871
-0.33800482749938965
-1.5292078256607056
-0.1738131046295166
2.211625099182129
0.004264116287231445
0.42996764183044434
-3.929215669631958
-4.8495001792907715
3.0450427532196045
-2.638054370880127
1.709756851196289
1.9830727577209473
1.2649261951446533
-4.262998580932617
-3.2211172580718994
2.5629754066467285
-1.131356954574585
1.422426700592041
3.5761940479278564
-1.1034435033798218
-2.941923141479492
2.7005667686462402
3.607445240020752
2.9574246406555176
1.039450764656067
4.362271308898926
0.7865607738494873
1.4214897155761719
-1.2853842973709106
3.37339448928833
2.4410223960876465
-1.4944958686828613
-3.2451629638671875
3.8019461631774902
-0.6239336729049683
-0.6123900413513184
0.5558538436889648
1.225895881652832
-0.7847344875335693
-4.500836372375488
2.9740519523620605
-2.4613161087036133
-3.9142966270446777
0.6410354375839233
3.5754334926605225
1.4097362756729126
-3.3884334564208984
3.6387765407562256
-2.996941089630127
-1.7244946956634521
1.3101130723953247
0.7599478960037231
0.8772802352905273
4.923693656921387
0.5693250894546509
4.930109024047852
1.0602754354476929
-4.063233852386475
1.1790275573730469
0.8643794059753418
4.097180366516113
3.5839760303497314
-1.8298977613449097
-3.551729202270508
2.926806926727295
-4.546161651611328
4.804091453552246
3.3299970626831055
-4.4468302726745605
-0.8828359842300415
2.7936315536499023
-0.09162008762359619
-3.9164252281188965
4.476794242858887
4.099812030792236
0.3036266565322876
0.449984073638916
-1.0775244235992432
3.3538424968719482
4.976863384246826
3.0990731716156006
-0.14726758003234863
-3.473161458969116
-4.68130350112915
-2.894594192504883
3.091061592102051
1.8937814235687256
2.5639140605926514
-4.544690132141113
3.9086532592773438
-4.39225435256958
4.021627902984619
0.8714264631271362
2.123548984527588
-2.1485161781311035
-1.0432016849517822
1.4858317375183105
1.5865355730056763
0.12990951538085938
-3.954371929168701
-0.8092933893203735
2.4530773162841797
-2.0954065322875977
1.5853279829025269
1.6485381126403809
-2.69942569732666
0.5770659446716309
-3.5938000679016113
1.0589081048965454
-2.6404194831848145
-2.540311813354492
2.454957962036133
-3.0326592922210693
-3.978745937347412
0.5205464363098145
1.443096399307251
4.056044101715088
4.152080535888672
3.573014736175537
-4.160384178161621
2.1505327224731445
-3.461759090423584
1.4531809091567993
1.2963265180587769
-3.9349305629730225
4.599284648895264
-0.6275022029876709
2.6955044269561768
-0.36992430686950684
-3.8861851692199707
1.863279938697815
-1.8207859992980957
-3.18648099899292
4.504783630371094
-3.10337495803833
-4.561246871948242
4.564834117889404
4.8108391761779785
-4.776918411254883
-2.700601816177368
-3.545929193496704
0.05166888236999512
-1.3260024785995483
3.2239556312561035
3.712106943130493
4.664039611816406
-2.994513511657715
-4.820939064025879
4.5425004959106445
3.0823988914489746
-1.661965250968933
-0.3327500820159912
2.995654344558716
3.5606038570404053
-2.1551318168640137
-1.661447286605835
2.976552963256836
4.833266735076904
-2.8954625129699707
2.07674503326416
-0.41527390480041504
-3.794090747833252
-1.4777976274490356
3.8329756259918213
0.726858377456665
-2.191166400909424
-3.9644927978515625
3.684743642807007
4.347434043884277
4.872432231903076
2.581686496734619
1.9691848754882812
-3.4789175987243652
-1.5398037433624268
3.6708264350891113
-1.8796539306640625
-0.3468543291091919
0.764663815498352
4.075517654418945
0.6810444593429565
-1.9649183750152588
-0.8779960870742798
4.830105781555176
-1.5823352336883545
-4.327615737915039
2.7801222801208496
1.1854010820388794
0.5036807060241699
2.5999088287353516
-3.733389377593994
-0.8297890424728394
1.2240099906921387
-4.440920829772949
4.2063188552856445
1.2838560342788696
-1.1371517181396484
4.951112270355225
3.5498154163360596
-2.5703203678131104
0.5540633201599121
-3.8011951446533203
-0.5342012643814087
-0.624687671661377
2.4834399223327637
2.126819610595703
2.351104736328125
-0.8005505800247192
4.430185317993164
-3.4319944381713867
2.406144142150879
-0.2035456895828247
-2.878469944000244
4.263696193695068
-0.447617769241333
-1.4699912071228027
2.05564022064209
0.1730060577392578
4.8290910720825195
0.5572271347045898
4.537258625030518
2.7449405193328857
2.1526355743408203
2.718301296234131
-1.213318109512329
1.5239500999450684
-1.0373198986053467
0.7683545351028442
-2.348752498626709
3.9220643043518066
0.9820437431335449
-4.78659200668335
1.1010545492172241
-0.8523577451705933
0.40262460708618164
4.228200912475586
-3.8348841667175293
-2.537740468978882
1.257525086402893
-4.261770248413086
4.004637718200684
-0.7454276084899902
-1.3161545991897583
-3.5687761306762695
-3.4229273796081543
3.2657675743103027
-3.9872586727142334
-0.5548858642578125
-1.1254304647445679
4.849265098571777
1.0903877019882202
-1.9877392053604126
2.4864470958709717
-0.14728784561157227
-0.46089768409729004
2.2065467834472656
0.6063574552536011
4.809389114379883
1.5717023611068726
4.955307960510254
3.3563971519470215
0.1364600658416748
1.8903160095214844
0.9877622127532959
-0.8859038352966309
-3.7420825958251953
0.7055366039276123
4.7724223136901855
2.4919538497924805
-2.419372081756592
2.231550693511963
-3.3436994552612305
1.7270779609680176
1.4139407873153687
4.532444477081299
-1.7021620273590088
-2.1090869903564453
-3.1205403804779053
-1.64470374584198
1.554265022277832
-0.16730070114135742
-2.9684276580810547
-0.215798020362854
-1.2556886672973633
2.8380167484283447
-1.493648886680603
2.0395195484161377
-4.307775497436523
-4.765270233154297
0.5227082967758179
0.5381619930267334
3.2332003116607666
-3.3617777824401855
-4.257111072540283
-4.910272598266602
3.5194091796875
-0.8723711967468262
1.90823495388031
-3.3481383323669434
-2.863293170928955
-0.2772289514541626
-3.869143009185791
-1.1149311065673828
-2.116940498352051
-0.6682461500167847
4.853602409362793
-2.5330424308776855
-1.7398226261138916
1.5121477842330933
-3.3177871704101562
1.0396182537078857
-0.9895217418670654
-0.5090636014938354
3.2185184955596924
-4.7811689376831055
-3.8556861877441406
3.8829140663146973
3.637162446975708
-3.606497049331665
4.130555152893066
-2.696964740753174
1.786828637123108
1.3479632139205933
1.5815824270248413
-2.1392006874084473
3.0779809951782227
-4.03544807434082
-2.3027825355529785
-2.4642581939697266
1.141502857208252
-4.518545150756836
2.8180837631225586
-3.749699592590332
-1.7136412858963013
-3.280343532562256
3.085477352142334
-0.4259830713272095
-2.9890549182891846
1.2378323078155518
-2.1484124660491943
0.3114640712738037
3.3745956420898438
-2.9339563846588135
4.101451873779297
-1.4477860927581787
3.836698532104492
-4.794464588165283
-3.2616167068481445
4.307387351989746
0.426061749458313
-2.1837973594665527
-1.3190853595733643
3.7430601119995117
0.7989299297332764
-4.544740676879883
3.886070728302002
-2.2286229133605957
-0.8520907163619995
-3.9538164138793945
-2.253329277038574
-2.192678451538086
-3.915085792541504
3.768585205078125
-2.063657760620117
1.6805994510650635
3.869110345840454
-0.2544647455215454
-0.6467831134796143
-4.247892379760742
1.7970597743988037
1.4000976085662842
-3.968714475631714
1.3734394311904907
2.609466314315796
4.448149681091309
1.9678884744644165
3.0024242401123047
-2.4291467666625977
1.6374534368515015
0.008674263954162598
-3.9893298149108887
-3.099689483642578
-0.8632057905197144
1.0208600759506226
-2.140286445617676
-4.2905778884887695
3.6836349964141846
4.386166572570801
1.655949354171753
-0.944790244102478
-2.3698604106903076
-0.2979004383087158
4.802762985229492
4.440244674682617
1.457885503768921
-0.12870371341705322
2.63901948928833
-4.330952167510986
3.3895957469940186
-1.6084355115890503
1.580510139465332
-1.2391316890716553
-2.2034168243408203
1.573585867881775
3.7653982639312744
2.2664480209350586
0.2242875099182129
-2.92036771774292
4.852909088134766
0.26432037353515625
-0.767410397529602
-1.902945637702942
4.149237632751465
4.2255730628967285
-1.273972988128662
1.6679680347442627
-3.7448410987854004
-1.6787773370742798
-0.9586429595947266
-3.7441225051879883
1.9714033603668213
3.370914936065674
-1.567869782447815
-1.863277554512024
3.1922430992126465
-4.955540657043457
-3.435636043548584
-3.7171339988708496
-1.6972649097442627
-2.0412206649780273
-1.307525634765625
-1.777825951576233
-3.5851335525512695
-4.4264421463012695
-1.0448074340820312
4.089928150177002
-2.717163562774658
-3.828282356262207
-2.9918181896209717
-3.530385971069336
-0.5154848098754883
3.3897972106933594
-2.5591492652893066
0.3915947675704956
-0.5923843383789062
-0.30672013759613037
2.212838649749756
1.309484839439392
3.6045103073120117
-2.3906497955322266
3.9506781101226807
1.3171637058258057
4.454215049743652
4.451995849609375
1.2831848859786987
2.150498628616333
4.975558280944824
-4.499368190765381
-4.462521076202393
1.513969898223877
0.6598424911499023
0.20360291004180908
2.7947049140930176
0.39162755012512207
0.8284533023834229
-1.1666709184646606
3.400247573852539
-1.316271424293518
-2.8285937309265137
-0.7368969917297363
-2.9214091300964355
4.725612640380859
4.593213081359863
-2.909581184387207
-2.004136562347412
-2.5042426586151123
-2.596691846847534
2.9900331497192383
0.1397937536239624
0.2830922603607178
4.06082820892334
-3.1087863445281982
-4.113814353942871
2.7057223320007324
-3.295882225036621
3.8638460636138916
-4.384204864501953
1.1035239696502686
-3.1208181381225586
4.289278507232666
-4.623767852783203
4.495012283325195
0.9668463468551636
0.7119214534759521
-2.3122000694274902
-2.4597787857055664
-1.8095427751541138
2.8778886795043945
-0.7619649171829224
-0.1745384931564331
-0.7995003461837769
-0.9919697046279907
-4.2601704597473145
-4.262723445892334
2.791147232055664
0.7466071844100952
3.0810446739196777
0.8729809522628784
1.6419696807861328
-3.490983247756958
0.20568370819091797
-2.154742479324341
-0.16509830951690674
3.4573709964752197
-2.247626781463623
-3.746049404144287
-4.210290908813477
3.477423667907715
-3.3191323280334473
2.200932502746582
0.4894137382507324
4.886596202850342
-0.6815004348754883
2.101710319519043
-2.9894919395446777
3.3991284370422363
-2.635955333709717
2.6943981647491455
-1.2073338031768799
2.495541572570801
-4.663999080657959
4.463170051574707
-0.5784082412719727
1.830558180809021
-3.7837295532226562
3.486024856567383
0.38047194480895996
-0.13628840446472168
-1.8791449069976807
-2.3015284538269043
-2.044682502746582
3.3636021614074707
-4.240553855895996
-2.6452267169952393
-0.2564293146133423
-3.170149803161621
-0.7097023725509644
-2.907996654510498
1.7813467979431152
1.8623119592666626
1.5311485528945923
3.391080379486084
1.7213809490203857
2.9073166847229004
4.978170871734619
-2.279019355773926
2.5912225246429443
-2.895965099334717
4.871187686920166
2.4916510581970215
-2.9491841793060303
2.7754430770874023
-2.1858339309692383
-4.221814155578613
-1.357107162475586
1.7486226558685303
-4.064054012298584
-2.829871654510498
4.9624247550964355
3.595684766769409
0.009287595748901367
3.0083422660827637
-3.0822415351867676
-3.837130069732666
-3.380232334136963
-4.433235168457031
-1.9475722312927246
2.6611990928649902
1.7043668031692505
-0.3069847822189331
1.2604433298110962
-4.956633567810059
-2.591646194458008
-1.778145432472229
-4.0419487953186035
0.46069860458374023
0.11534392833709717
-3.293212652206421
3.9515280723571777
-0.9905487298965454
3.0973334312438965
0.17181634902954102
4.724896430969238
-1.3777655363082886
-2.051445245742798
2.567880630493164
1.8060946464538574
-3.6210250854492188
-0.22011816501617432
0.2334761619567871
-1.8210923671722412
4.399801254272461
4.0611572265625
-2.8807389736175537
-4.404016494750977
-4.806904315948486
-0.45955002307891846
3.961226463317871
-3.898184299468994
3.3754396438598633
-4.593675136566162
-0.4983276128768921
3.3612585067749023
3.2223498821258545
-0.11260271072387695
-3.3066201210021973
1.5577930212020874
-0.12823760509490967
-3.0702340602874756
4.417923927307129
4.006451606750488
4.164741516113281
2.115485668182373
-1.6518127918243408
-3.6696557998657227
0.2046126127243042
-4.726414680480957
-2.6618540287017822
-2.53027081489563
1.5376389026641846
-3.4900617599487305
2.1866071224212646
-0.8976715803146362
-2.6471853256225586
2.8954620361328125
-3.741363286972046
1.7082065343856812
-2.1312599182128906
2.58693265914917
-4.371912002563477
-4.251706123352051
-3.1182522773742676
1.5255677700042725
4.902286529541016
4.760215759277344
-4.292566776275635
-0.5888783931732178
2.38723087310791
4.907169342041016
3.029738664627075
-2.239394187927246
-0.1635211706161499
2.2254085540771484
-1.2936514616012573
4.43897819519043
1.6933661699295044
4.864662170410156
0.751044750213623
-0.9662109613418579
1.8847501277923584
-3.353855609893799
-4.436049938201904
-0.6925493478775024
2.16170072555542
-0.30144214630126953
4.206438064575195
-4.798440456390381
0.421372652053833
-4.521280288696289
-3.02750301361084
-2.4793684482574463
-4.9961466789245605
3.6264185905456543
4.7022013664245605
-0.44772863388061523
-2.3365628719329834
-1.3894641399383545
-4.1182355880737305
2.0828402042388916
3.697206974029541
2.544045925140381
1.4005839824676514
3.1690316200256348
-1.087127923965454
4.709408760070801
4.367373466491699
0.7847225666046143
4.976679801940918
0.8543580770492554
-3.740452527999878
-1.7316550016403198
3.8512606620788574
-1.916208267211914
-3.816349506378174
3.069672107696533
-0.9308654069900513
-0.13981223106384277
0.6068867444992065
-0.611845850944519
3.4531779289245605
4.187757968902588
2.6844100952148438
-4.808910369873047
-4.540207862854004
1.230834722518921
4.513590335845947
-3.886669874191284
-3.1408238410949707
2.4221765995025635
1.2110966444015503
-0.28331220149993896
4.1616668701171875
-4.64898681640625
1.7035514116287231
-2.59639310836792
2.6374447345733643
-0.5364173650741577
-0.7237792015075684
1.3442599773406982
1.4531564712524414
-0.2778106927871704
2.1215267181396484
-4.471573829650879
-0.7364696264266968
4.9948272705078125
4.911053657531738
3.464036464691162
3.3555984497070312
-2.9898881912231445
1.478487253189087
-2.884906530380249
0.36044061183929443
4.416677951812744
3.4000496864318848
-1.0640579462051392
-0.25829970836639404
-4.1813201904296875
2.103287696838379
-0.11889040470123291
1.266794204711914
-0.11290669441223145
3.290482759475708
4.145789623260498
-3.102571964263916
-0.18088459968566895
2.2518301010131836
-3.75150728225708
4.838618755340576
1.8650096654891968
0.04430830478668213
-2.4373626708984375
-3.3959360122680664
2.47472882270813
1.6596794128417969
-0.7726418972015381
-3.9592556953430176
-1.7719775438308716
3.9902634620666504
2.74023175239563
-4.636220455169678
-4.724586486816406
-0.42865872383117676
1.7079824209213257
-3.153329372406006
-3.0115528106689453
0.3377467393875122
0.9886902570724487
-1.7387807369232178
-2.8676958084106445
-2.2608184814453125
-2.3849868774414062
-4.758852005004883
1.6498053073883057
2.930025577545166
0.7882416248321533
-1.8647688627243042
1.381899118423462
4.957243919372559
2.254467487335205
4.707615375518799
-4.674129009246826
0.14283418655395508
-0.574917197227478
2.2290146350860596
4.710236072540283
1.5799617767333984
-0.37640929222106934
3.483027935028076
0.8869898319244385
0.8754616975784302
-2.6999175548553467
-4.706399440765381
-0.7684326171875
2.173060178756714
-3.5443930625915527
-3.924503803253174
-0.3965502977371216
0.9349006414413452
-3.1057095527648926
0.23872077465057373
4.942297458648682
1.9536757469177246
-3.664142608642578
3.0655508041381836
0.02327859401702881
-4.720302581787109
-3.5291008949279785
4.8567585945129395
4.819771766662598
-2.000985622406006
2.3527603149414062
-0.9502637386322021
2.1519076824188232
-0.43138742446899414
3.251506805419922
-4.110374450683594
-1.0531580448150635
-0.6623870134353638
3.436480760574341
2.7356224060058594
-0.6062781810760498
-4.74974250793457
2.025250196456909
-0.23497283458709717
-2.783045768737793
0.9845572710037231
-2.209829092025757
-2.339771270751953
2.1705989837646484
-3.9666616916656494
2.93255615234375
2.697751522064209
2.410831928253174
-4.258254051208496
-3.3669357299804688
-3.2207703590393066
2.650118350982666
-0.006781220436096191
-3.4890193939208984
1.5332263708114624
-3.265331983566284
4.156585216522217
2.851686954498291
-0.7377910614013672
-0.4038107395172119
0.7989656925201416
4.99880313873291
0.7047504186630249
-4.728949546813965
-2.582749843597412
2.094888210296631
3.2296175956726074
-4.002561569213867
3.5860931873321533
-3.6372570991516113
-0.01756429672241211
-0.7823127508163452
0.1599043607711792
-1.6496556997299194
3.8799877166748047
-0.16623139381408691
-4.146259307861328
1.5493696928024292
2.3110432624816895
0.27531981468200684
0.17306089401245117
2.1046595573425293
2.481337070465088
0.10907649993896484
1.4310026168823242
-3.9445114135742188
0.9655284881591797
-4.904962062835693
-0.19348978996276855
-3.183887004852295
-1.961408257484436
-3.891798257827759
-3.964318037033081
4.070973873138428
0.4972648620605469
-4.693454742431641
-0.47298312187194824
-1.3814139366149902
0.09924948215484619
-2.271247386932373
-3.760275363922119
-2.8317630290985107
-3.499457836151123
4.322749137878418
-2.4897522926330566
4.927128791809082
-1.8776112794876099
-1.3064682483673096
-0.24086475372314453
-0.2042919397354126
-4.901919841766357
-3.1476240158081055
0.418168306350708
-0.0699073076248169
0.11153221130371094
2.466869831085205
3.902153968811035
0.6784331798553467
4.225950717926025
0.8511388301849365
-0.416598916053772
-1.1702829599380493
0.7997453212738037
2.7782444953918457
0.7380372285842896
2.6370577812194824
-4.707577705383301
4.503318786621094
3.706800937652588
-1.867518424987793
-2.424238920211792
-3.2008564472198486
2.0897512435913086
3.3072125911712646
-4.408104419708252
2.749448299407959
3.8717925548553467
-3.70747447013855
0.552794337272644
-0.7757854461669922
4.807442665100098
-4.225516319274902
-1.0257643461227417
-1.1378991603851318
-0.8112579584121704
-2.4241387844085693
1.707121729850769
-0.22468805313110352
-3.0544590950012207
1.235877275466919
4.70144510269165
-3.37935733795166
1.7049407958984375
2.1400725841522217
-3.148637294769287
4.977137565612793
-1.5551215410232544
-4.543123722076416
2.167764902114868
-2.252896308898926
-2.649487257003784
-2.9863529205322266
3.357822895050049
-2.5542550086975098
-4.287783622741699
-2.9860968589782715
2.2159342765808105
-2.560821771621704
-4.362154960632324
-4.088971138000488
-3.989872932434082
2.3862624168395996
-1.9069063663482666
-1.904807686805725
4.151467323303223
-1.9273269176483154
4.591887474060059
0.6339514255523682
3.136763095855713
1.513756513595581
-4.350078582763672
-2.0212113857269287
1.238464117050171
-2.5554394721984863
-1.03904128074646
3.1865429878234863
-4.731936931610107
-0.8087557554244995
1.88576340675354
-4.785408973693848
-3.5453968048095703
3.289123773574829
-0.8575767278671265
-4.328828811645508
-1.0414797067642212
4.221444129943848
2.0952658653259277
-2.991945743560791
4.589601039886475
0.22349774837493896
-4.545083522796631
4.53392219543457
-0.8707571029663086
3.4339170455932617
-2.122295379638672
3.336378335952759
-3.6094272136688232
-1.2347489595413208
-2.601482391357422
-3.2069091796875
4.310729503631592
-0.02314627170562744
1.013137698173523
-1.076291799545288
-4.61063814163208
-1.3865292072296143
0.36656737327575684
-1.4890164136886597
0.5040508508682251
0.05280911922454834
-4.6188249588012695
-1.6399270296096802
-1.7089450359344482
-0.003846287727355957
2.9075682163238525
-0.04118919372558594
1.0288995504379272
-3.2697033882141113
3.892875909805298
-1.6305053234100342
-4.64047384262085
-2.439481735229492
-3.9171056747436523
-2.323612689971924
1.6898733377456665
-1.5817910432815552
-1.490185260772705
-3.484091281890869
-1.8949854373931885
1.0191941261291504
2.725783586502075
0.9428125619888306
2.8677420616149902
2.607619285583496
-4.659631729125977
-2.518773078918457
-2.239645004272461
-4.435932636260986
-1.5206378698349
-0.9487378597259521
2.7303333282470703
2.5655980110168457
3.5317862033843994
-3.5419158935546875
-0.4733544588088989
2.920893430709839
-1.6237854957580566
-3.779529333114624
-1.3419246673583984
-4.191751003265381
-3.782367706298828
4.170525550842285
4.375767230987549
0.8416056632995605
2.4192726612091064
2.97743558883667
-2.807878255844116
-1.6147422790527344
4.1336894035339355
-0.43093442916870117
2.3162996768951416
4.81758975982666
1.1335724592208862
-3.5896658897399902
-3.6616439819335938
-1.7241841554641724
-2.318553924560547
4.342278480529785
-1.538955569267273
0.846017599105835
-2.619317054748535
-3.1824111938476562
-2.10149884223938
4.525864601135254
1.196795105934143
-1.9547265768051147
-4.021523475646973
2.192654609680176
3.8623857498168945
4.968478679656982
1.6499090194702148
-3.8508219718933105
3.9725847244262695
3.8661158084869385
-1.9328832626342773
-3.7316055297851562
-3.3125548362731934
2.4426376819610596
-2.3414711952209473
-3.7301082611083984
-3.812817335128784
2.834441661834717
4.460927963256836
-0.026903152465820312
4.135067939758301
-2.6697535514831543
-2.2150814533233643
2.501647472381592
4.307237148284912
-1.37775719165802
-3.3444952964782715
3.159130811691284
-3.6790597438812256
-1.0483402013778687
2.531075954437256
4.138617992401123
-0.23868083953857422
-4.0050177574157715
0.038947463035583496
0.2283567190170288
-4.143545150756836
-1.8053120374679565
4.776237487792969
0.37624120712280273
-3.2778472900390625
3.441910743713379
0.4179680347442627
-0.699884295463562
1.7890596389770508
4.56967830657959
-2.3373026847839355
1.4845728874206543
-0.31133532524108887
4.547656059265137
-2.951101064682007
-3.125898838043213
-0.8786296844482422
-2.8529839515686035
-0.0819176435470581
-3.3752365112304688
-0.7749152183532715
3.262864351272583
4.214931488037109
3.460843086242676
4.029000282287598
4.168611526489258
-1.7615854740142822
-2.170790433883667
4.69285249710083
-4.610134124755859
-1.364949345588684
2.2638421058654785
0.5317944288253784
-4.685616493225098
3.00667405128479
-0.4414635896682739
-3.8978986740112305
2.320058822631836
0.5467474460601807
-1.3287651538848877
-2.179561138153076
1.3567131757736206
0.5844801664352417
-2.796360969543457
3.313009262084961
3.3428831100463867
2.1737825870513916
3.051180362701416
-1.2998205423355103
-1.7496997117996216
2.6898856163024902
-4.081418991088867
-0.266689658164978
-0.3080219030380249
-1.528145670890808
3.1440114974975586
-1.3143616914749146
-3.4182095527648926
0.962178111076355
3.2502264976501465
-0.613214373588562
-3.0976760387420654
1.5392184257507324
-4.794504642486572
2.165494441986084
2.74300217628479
2.7149658203125
-4.826920032501221
0.7685762643814087
2.0228445529937744
1.8859046697616577
4.979402542114258
-3.246938705444336
-4.80645227432251
2.0917301177978516
-4.657142162322998
-1.7433542013168335
-1.2378156185150146
-3.1256461143493652
0.5638861656188965
-0.5514556169509888
-2.2569239139556885
-0.6366080045700073
1.6499131917953491
2.014781951904297
-3.258946418762207
-0.9240919351577759
-0.7149767875671387
-1.438954472541809
1.9103312492370605
-0.05463540554046631
2.483706474304199
0.3009909391403198
0.6827455759048462
-4.968258857727051
-0.19781768321990967
3.4731388092041016
2.105668067932129
3.8619203567504883
-2.487905502319336
3.8862013816833496
1.5941345691680908
-2.0365309715270996
-1.1562788486480713
0.2781027555465698
0.6356209516525269
-4.151385307312012
4.23429012298584
0.8916723728179932
4.772665500640869
-3.6522114276885986
-0.7921648025512695
-4.920331001281738
4.342576026916504
-3.9411044120788574
2.0839147567749023
1.7695444822311401
-1.1794519424438477
3.951169967651367
1.9622141122817993
-1.683591604232788
1.0695523023605347
1.4289045333862305
0.43865442276000977
-1.6205376386642456
-4.24443244934082
-4.085256576538086
1.1374974250793457
2.8576464653015137
2.0795392990112305
-1.8451154232025146
-4.464393615722656
-1.8447601795196533
4.778642177581787
-0.21383225917816162
3.6333203315734863
-4.1849565505981445
-3.9391934871673584
-3.5495102405548096
3.9964704513549805
4.209033966064453
1.2914365530014038
0.014418363571166992
0.5421137809753418
1.414046287536621
-0.22331416606903076
-2.565662384033203
4.88651180267334
-1.6469287872314453
-0.6449383497238159
-1.3553953170776367
-4.030455589294434
-3.855839252471924
2.0748138427734375
3.4438812732696533
1.765027642250061
-0.0768578052520752
0.8777225017547607
2.442324161529541
3.572171926498413
-1.1310356855392456
-1.8162035942077637
3.169358968734741
3.3778185844421387
3.958995819091797
-0.175895094871521
-2.2337543964385986
-4.315662860870361
0.20902395248413086
4.585338592529297
4.59989595413208
3.0507569313049316
-1.2816113233566284
-4.565942764282227
-2.263002395629883
1.4230906963348389
1.1373072862625122
-0.10362327098846436
3.7590999603271484
3.1542177200317383
-2.5356316566467285
-0.9611928462982178
0.6509411334991455
-4.475398540496826
3.7442684173583984
-2.884082317352295
3.0361480712890625
4.801115989685059
-4.8225789070129395
-3.785349130630493
-2.772289514541626
-0.20292460918426514
0.31345486640930176
2.533794641494751
-2.951958656311035
1.5632104873657227
-4.149372100830078
-2.402994155883789
1.5786606073379517
4.444141387939453
-1.3953375816345215
-0.578228235244751
1.6278314590454102
-1.8687433004379272
0.4767817258834839
-4.926120758056641
-3.7580223083496094
-4.459262371063232
4.806132793426514
-1.8472015857696533
0.8011680841445923
0.010637640953063965
3.9321069717407227
-2.490542411804199
-3.3209424018859863
0.2658182382583618
0.7442259788513184
-1.7678719758987427
-0.05637407302856445
-1.6774076223373413
3.619447946548462
2.8926432132720947
4.738053321838379
4.630944728851318
-1.3715308904647827
1.8743884563446045
0.7038205862045288
4.57218599319458
3.954469680786133
1.8620198965072632
3.7643604278564453
-0.6088906526565552
4.861817836761475
3.2235896587371826
4.732423305511475
3.8476955890655518
-1.4383536577224731
0.9278672933578491
0.27410566806793213
-1.4161020517349243
4.260439395904541
2.0884485244750977
-1.2252509593963623
1.332065463066101
-3.6075143814086914
2.3934781551361084
-1.5944570302963257
1.7153537273406982
-2.5957369804382324
-3.8467085361480713
3.264669895172119
-3.7643508911132812
-1.1133313179016113
1.9721776247024536
3.7245960235595703
4.995689868927002
-3.220992088317871
1.025194525718689
0.2001953125
-0.6995773315429688
2.767463207244873
4.403090000152588
2.3846001625061035
-0.7747495174407959
1.8723422288894653
3.1909103393554688
3.786130428314209
4.879411697387695
-2.904003858566284
1.9878214597702026
0.1266467571258545
1.9408833980560303
-0.548710823059082
-3.0174880027770996
-0.903201699256897
-3.738945722579956
3.804645538330078
0.9018969535827637
3.1557273864746094
-0.7448303699493408
2.8749446868896484
2.9885923862457275
-0.15809953212738037
3.3867669105529785
-1.911953091621399
-4.62110710144043
-0.4607582092285156
-1.5443050861358643
3.4860241413116455
1.9982337951660156
-3.7888431549072266
-4.599023342132568
-1.249116063117981
0.42188167572021484
-4.551767826080322
-4.121157646179199
-2.123293399810791
-4.472146034240723
-2.2715389728546143
-3.4235918521881104
-1.1051446199417114
-0.43407142162323
-4.7019524574279785
-4.167671203613281
-2.861294746398926
1.256435513496399
4.063838005065918
3.073422908782959
4.172904014587402
-4.602983474731445
-1.3560259342193604
-4.587016582489014
-1.9155597686767578
-0.7174736261367798
-1.168397068977356
-0.27926623821258545
-0.7529997825622559
-2.973066568374634
-0.4513216018676758
-3.048967123031616
1.8656426668167114
3.016791820526123
-2.454333782196045
0.5458211898803711
3.056474208831787
0.5302780866622925
-3.9378409385681152
4.50941801071167
2.4176735877990723
-3.26320219039917
1.1080282926559448
4.136903762817383
0.0370943546295166
-4.531103134155273
-1.5587824583053589
3.3764381408691406
-4.2777018547058105
0.35607337951660156
0.47408759593963623
-4.915676593780518
-2.473207712173462
3.0606870651245117
4.784289360046387
1.812276840209961
1.0086029767990112
0.7974272966384888
-3.5315632820129395
-4.272272109985352
-0.7478582859039307
-0.7061320543289185
1.8688082695007324
2.444742202758789
-3.2988059520721436
-1.4891600608825684
1.1174380779266357
-1.7735570669174194
1.0103946924209595
-0.6555682420730591
-2.8479039669036865
-3.343194007873535
-2.8232157230377197
-2.8608174324035645
3.3199172019958496
-4.42605447769165
-2.5549161434173584
-1.9763505458831787
-4.866881847381592
-0.9317034482955933
1.2047064304351807
4.110386848449707
2.1949095726013184
1.5933668613433838
-1.8410873413085938
4.6641435623168945
-2.428755760192871
0.7863754034042358
-0.6761378049850464
0.02256631851196289
-3.9745450019836426
4.179460525512695
-2.6841611862182617
-0.1528334617614746
2.4195032119750977
-0.5158299207687378
-4.651937484741211
-4.910979270935059
3.3600449562072754
3.0935025215148926
3.3549797534942627
-4.319616317749023
0.7536500692367554
1.5642344951629639
-3.306339979171753
1.6228967905044556
-4.461639404296875
3.47108793258667
4.472155570983887
0.9545856714248657
4.464670181274414
-3.326761245727539
-0.7121515274047852
2.56671142578125
-3.324437141418457
-1.1311805248260498
1.120603084564209
-2.560595989227295
0.03120243549346924
-2.343418598175049
-4.557066917419434
-2.590195655822754
-2.0305581092834473
3.154386281967163
-1.059417724609375
3.8222365379333496
-4.700336933135986
-0.32362639904022217
-2.7286572456359863
-1.5128040313720703
-1.9126731157302856
-1.164441704750061
4.24831485748291
-0.6487554311752319
-3.1262927055358887
0.6635057926177979
3.9681105613708496
2.6162056922912598
0.34472882747650146
0.5271273851394653
-0.502120852470398
0.11240065097808838
-4.549029350280762
1.5342843532562256
-1.3980114459991455
-4.697412967681885
0.4052746295928955
-3.829145908355713
-2.0245838165283203
-2.9477672576904297
-4.756128311157227
-1.3256233930587769
-1.0666722059249878
-2.6641857624053955
-4.688441753387451
-4.648028373718262
-4.606831073760986
-3.6479692459106445
1.482587456703186
3.0775845050811768
-2.7836875915527344
-3.506443500518799
-4.200882434844971
3.5968518257141113
1.021619439125061
-0.43406248092651367
-3.0778651237487793
0.22422194480895996
-4.054937362670898
0.28825879096984863
-0.9491622447967529
3.8899083137512207
2.5311522483825684
3.0544674396514893
4.261820316314697
2.2936348915100098
0.06761252880096436
-0.7858520746231079
-1.6833782196044922
1.8138670921325684
-3.1895880699157715
3.6766605377197266
-3.5658411979675293
-0.3723186254501343
1.31869375705719
3.7908613681793213
-0.8466994762420654
-1.3039720058441162
3.686694622039795
0.44820547103881836
0.8316665887832642
1.4967375993728638
-2.988285541534424
2.850292921066284
-0.5677163600921631
-2.065843343734741
0.6944435834884644
-0.07049977779388428
-3.2862043380737305
-2.832921028137207
3.882291316986084
4.9761481285095215
1.7175590991973877
3.2791829109191895
4.821097373962402
-3.523216724395752
-2.7274298667907715
-2.9717679023742676
-2.609879493713379
-0.2189236879348755
2.134220600128174
4.267861843109131
1.5052598714828491
-2.8289241790771484
-0.8656609058380127
0.11118292808532715
-1.7370504140853882
0.7941466569900513
-0.5722248554229736
3.2271056175231934
2.070363759994507
-4.766149044036865
2.436373710632324
-1.2869375944137573
1.0058552026748657
-2.8681678771972656
1.5570712089538574
0.31268835067749023
-1.7523181438446045
-4.955043315887451
4.040874481201172
3.041224479675293
3.600975275039673
-3.1614632606506348
4.868752956390381
-2.1014599800109863
-3.524221181869507
-3.5025196075439453
4.935271263122559
-1.2006199359893799
3.6873257160186768
0.8081179857254028
2.6687378883361816
3.2988839149475098
-4.740841388702393
-3.644129753112793
0.41654109954833984
-1.539279818534851
4.137246608734131
2.535717010498047
-4.163721084594727
-0.7160460948944092
-3.9728927612304688
-0.4722177982330322
-1.7314189672470093
2.607734203338623
0.13550996780395508
-4.400364875793457
-1.9812297821044922
-4.85892391204834
1.6543930768966675
3.716744899749756
-4.184482574462891
1.1656767129898071
0.619053840637207
-2.264153480529785
1.9005048274993896
-2.863607406616211
-2.9112725257873535
-3.2081074714660645
1.4701467752456665
-4.383571624755859
-0.7502269744873047
-2.3568379878997803
1.0562074184417725
-3.851468563079834
3.375561237335205
-2.607349157333374
0.19554197788238525
2.351733446121216
3.9697325229644775
-1.7550694942474365
3.98020076751709
1.9740372896194458
-0.22098541259765625
-4.2196125984191895
-4.840818405151367
4.20958948135376
-0.37235260009765625
-1.9664454460144043
3.024690628051758
-1.6545981168746948
-1.3315647840499878
3.755708932876587
-0.21721601486206055
1.9348031282424927
-4.8325958251953125
0.33700525760650635
1.1856824159622192
0.056029558181762695
4.373279094696045
-0.4208076000213623
-4.622632026672363
-0.18547892570495605
-4.566135883331299
-1.1281180381774902
3.9426612854003906
3.7525181770324707
0.3047192096710205
-3.734985589981079
-0.3981262445449829
0.06177842617034912
-2.221865177154541
-3.214510679244995
1.688227653503418
-3.066877841949463
-1.699419617652893
-0.6389540433883667
0.095023512840271
-1.345096230506897
-4.666037082672119
-4.460240364074707
0.6764495372772217
-4.517704963684082
0.37091612815856934
3.3856563568115234
-4.196090221405029
1.287863850593567
2.088826894760132
-0.5472362041473389
-3.12620210647583
-1.325271725654602
-4.19527530670166
4.460583686828613
-4.230851650238037
1.8464016914367676
-0.31220316886901855
1.488938331604004
-2.3859238624572754
1.9983059167861938
-4.055965423583984
0.3608834743499756
1.425246000289917
-2.6029019355773926
2.2851526737213135
-4.022963523864746
0.538867712020874
2.373918294906616
4.83975887298584
-1.8028974533081055
3.8361620903015137
3.061234951019287
3.6982226371765137
4.3352179527282715
-2.0524299144744873
-2.608903646469116
-3.52554988861084
4.251476287841797
1.7098850011825562
-2.657379627227783
0.6198453903198242
0.5955690145492554
-2.61381196975708
0.031934380531311035
-1.7297250032424927
0.10906398296356201
-0.47785043716430664
3.4882898330688477
-3.289680004119873
4.545744895935059
-3.928375244140625
3.0217933654785156
-3.8037705421447754
4.156405448913574
-2.3717236518859863
-4.716737270355225
-4.983338832855225
1.6433089971542358
-2.42171573638916
2.4237875938415527
-1.0531646013259888
-2.235590934753418
-2.1465814113616943
-3.6846792697906494
0.35642385482788086
0.5087476968765259
4.106393337249756
-1.6149228811264038
-2.61476469039917
1.028815507888794
-1.2746578454971313
0.19300222396850586
-0.9446811676025391
0.7660043239593506
-3.393493890762329
2.046494960784912
0.7268345355987549
3.810739040374756
4.250195026397705
-4.54019021987915
0.7422983646392822
-3.7252025604248047
-1.947750449180603
1.5430724620819092
2.7853214740753174
4.001414775848389
-1.0694622993469238
3.0198681354522705
-4.21726655960083
1.3868588209152222
2.2334444522857666
-3.2484841346740723
0.011107325553894043
-3.5705745220184326
-0.4137474298477173
-4.22495174407959
2.369765043258667
0.7586222887039185
1.58430814743042
1.9817286729812622
-1.977066993713379
2.6353251934051514
1.4627593755722046
-0.12916326522827148
-0.7041364908218384
-3.5342133045196533
2.7665228843688965
-1.8370354175567627
4.866593360900879
3.857713222503662
2.0973033905029297
4.457993507385254
3.991086483001709
-0.30943334102630615
-2.005458354949951
1.2412446737289429
-2.669581890106201
-2.993544340133667
1.4629155397415161
2.199298858642578
0.541466474533081
-1.9096648693084717
3.420577049255371
1.4831429719924927
1.305379867553711
-3.857116222381592
1.0209518671035767
-4.114520072937012
-0.909569263458252
4.10674524307251
3.2892823219299316
-0.8278924226760864
-1.6016286611557007
0.043463706970214844
-2.513028383255005
-2.5283546447753906
-3.7219059467315674
3.9373321533203125
0.02724170684814453
-4.213031768798828
-1.20957612991333
-0.20746946334838867
-0.6489706039428711
4.605331897735596
-3.8122777938842773
1.6669493913650513
-4.0500640869140625
-3.8316988945007324
4.677318572998047
-0.9686321020126343
-4.507721900939941
-3.7104499340057373
2.6456265449523926
-1.8556731939315796
1.8489444255828857
-3.593142032623291
-0.4617273807525635
3.485018014907837
-4.4108734130859375
3.7089455127716064
-3.3398115634918213
-0.41061460971832275
1.3647174835205078
4.229249954223633
-4.050948619842529
-4.305132865905762
1.45000159740448
4.4444966316223145
-2.7123312950134277
-3.3701205253601074
-2.244669198989868
3.509624481201172
-1.3109040260314941
-4.495815277099609
-3.1238813400268555
-1.6880953311920166
0.2769273519515991
0.4912853240966797
1.4392155408859253
2.2020630836486816
0.48793137073516846
-3.2245607376098633
1.2164604663848877
0.881119966506958
-3.5278940200805664
-0.598229169845581
2.519928216934204
3.4669578075408936
4.9143385887146
-3.937650203704834
-1.6134768724441528
-3.630807399749756
1.1417937278747559
4.924473285675049
2.393608570098877
3.0556392669677734
4.632471084594727
-0.4837244749069214
-1.2038058042526245
-4.954072952270508
-3.8448472023010254
4.892181873321533
2.4948596954345703
2.1210389137268066
3.5323052406311035
0.1756894588470459
-3.631526231765747
1.5515577793121338
-0.7600754499435425
-3.105064630508423
-3.7456674575805664
3.5381884574890137
-1.912495493888855
-1.0308873653411865
-3.3704423904418945
-0.40204644203186035
-1.5658122301101685
3.858921527862549
2.4214248657226562
1.5468674898147583
-3.2980024814605713
-0.7439571619033813
4.712147235870361
-4.590396881103516
-4.716784477233887
1.1554616689682007
4.048023223876953
-0.930253267288208
-4.222738265991211
-3.4629714488983154
4.03767204284668
-3.042079210281372
-2.665304660797119
2.891752243041992
-2.3656458854675293
4.412850856781006
-2.2344934940338135
2.0832114219665527
-2.5705628395080566
-1.4478462934494019
-0.9499382972717285
3.560424327850342
1.2055391073226929
-0.7787656784057617
-0.430336594581604
1.667262315750122
2.457534074783325
0.6724590063095093
0.37663042545318604
0.06288111209869385
-1.5824437141418457
2.541222095489502
-0.6907200813293457
-1.678183674812317
1.9276994466781616
3.065471649169922
3.914668560028076
-1.7282521724700928
-1.8161171674728394
1.631627082824707
-4.307865619659424
1.108120083808899
-1.3999015092849731
-4.930046081542969
4.8655104637146
-2.2393202781677246
-4.230837345123291
-1.2301486730575562
-2.9854302406311035
0.24676799774169922
0.46037912368774414
0.899878740310669
2.7612555027008057
-1.8948566913604736
1.813828945159912
4.714793682098389
-3.840731382369995
2.6440305709838867
-0.8358544111251831
-0.8154183626174927
0.3535562753677368
0.24569392204284668
0.33369123935699463
3.717010021209717
3.8673834800720215
0.8414232730865479
-0.3626757860183716
-4.549654006958008
2.97845721244812
-3.1943421363830566
-4.618930816650391
2.007579803466797
-4.967360019683838
2.722813606262207
3.2387518882751465
3.425097942352295
1.2161821126937866
-4.031994819641113
-1.2408673763275146
1.5506547689437866
1.798238754272461
-1.0675173997879028
0.37760794162750244
-3.9423835277557373
0.7292395830154419
4.541614532470703
-2.051302909851074
3.5106797218322754
2.8330814838409424
-0.11077582836151123
1.0271674394607544
-4.210838794708252
-2.814995050430298
4.236779689788818
1.3637840747833252
0.3220444917678833
4.525690078735352
3.187669515609741
-2.3435730934143066
-2.8083622455596924
0.4059940576553345
-4.071167945861816
1.8738728761672974
4.925743103027344
-1.561172604560852
0.02491891384124756
0.3301936388015747
1.011771559715271
1.9186556339263916
0.48160433769226074
3.257443428039551
4.248411655426025
0.006407499313354492
-3.8524186611175537
0.2973794937133789
1.9656336307525635
-1.7856758832931519
2.4112069606781006
3.77718448638916
2.1982407569885254
-0.7937198877334595
2.2849459648132324
-3.8379769325256348
4.021231651306152
-4.2087225914001465
0.9110009670257568
0.7329285144805908
-4.967281818389893
-4.630884170532227
-4.511737823486328
-4.230961799621582
1.3414865732192993
4.388145446777344
2.256519317626953
-0.6404721736907959
4.852207183837891
-3.0979294776916504
-1.097407341003418
1.6300749778747559
4.643746376037598
3.7789506912231445
-2.720290422439575
3.494762897491455
2.8382253646850586
-1.860092282295227
1.1424410343170166
1.0468077659606934
1.624819040298462
-0.7868927717208862
3.462371826171875
-4.953604221343994
2.6285581588745117
-4.088214874267578
0.3532510995864868
-1.5265381336212158
-4.772527694702148
4.421574592590332
4.528720855712891
-2.734006643295288
-1.1204266548156738
1.1560410261154175
2.152193069458008
0.7951515913009644
0.21378636360168457
-4.739240646362305
-2.190392017364502
-2.3718338012695312
-2.713209390640259
-1.0280442237854004
3.815488815307617
-2.8541321754455566
-3.237287998199463
1.528659462928772
1.1059916019439697
-0.2826106548309326
0.1179581880569458
3.8666045665740967
-0.6841474771499634
3.649726390838623
-0.3763723373413086
-0.736892819404602
-3.703150749206543
-0.05942583084106445
-4.3413825035095215
-4.363434791564941
1.1124509572982788
0.041342973709106445
2.7346534729003906
0.9199041128158569
-3.4832334518432617
4.112087249755859
0.8783024549484253
-4.681629657745361
4.957117080688477
-0.4940229654312134
2.153921127319336
-3.7710213661193848
-2.628939151763916
0.9989243745803833
4.096259117126465
-0.05174100399017334
3.404371738433838
-4.722654819488525
4.653965950012207
2.2396302223205566
0.3613322973251343
4.767255783081055
-1.541256308555603
-0.5091148614883423
2.199159860610962
-2.459230422973633
-4.60615348815918
-2.9087114334106445
-1.538054347038269
-4.062402725219727
-2.3643040657043457
-0.7716679573059082
1.2649911642074585
2.0116019248962402
-4.289436340332031
-1.6158735752105713
-0.3819918632507324
0.9343385696411133
2.302737236022949
-3.855133056640625
-1.3734406232833862
-2.8063833713531494
1.260783076286316
3.6742353439331055
3.8279848098754883
3.606421947479248
-0.30479371547698975
-1.6004443168640137
1.2746942043304443
0.7693427801132202
1.4958548545837402
-2.4190235137939453
3.429189920425415
-1.8005603551864624
-1.1959034204483032
2.8479738235473633
1.7178541421890259
-3.1659388542175293
3.767531394958496
-2.7304835319519043
4.221937656402588
2.1754627227783203
0.6294894218444824
-3.2441024780273438
2.7631921768188477
4.757471561431885
-0.7612216472625732
-4.340578079223633
-2.851743221282959
-0.9945887327194214
-3.6847174167633057
-3.658000946044922
-4.068453788757324
-2.6582205295562744
3.213498115539551
-0.38938820362091064
-3.6163907051086426
-4.400198936462402
-4.040307521820068
-3.4067888259887695
0.8345472812652588
0.642242431640625
-0.4990464448928833
-1.4491713047027588
-0.09484291076660156
-3.6027872562408447
-2.570751190185547
3.9155638217926025
3.8283534049987793
0.32596468925476074
-3.0048656463623047
-2.46580171585083
2.8677022457122803
-3.7041444778442383
-2.4003429412841797
-4.3850555419921875
4.307358264923096
-0.23300588130950928
-3.223757743835449
-2.4416775703430176
2.448477268218994
-2.4079089164733887
-1.894838809967041
-2.0536398887634277
-3.887465000152588
3.2105588912963867
-0.26904523372650146
-4.882235050201416
-4.785431861877441
1.880822777748108
3.898688554763794
-2.4730634689331055
-0.2970743179321289
3.2865161895751953
-2.059950828552246
2.434645175933838
4.521822452545166
-3.5238404273986816
-4.291697025299072
-0.7229840755462646
-2.024906873703003
-4.08811092376709
-2.1035571098327637
-0.417514443397522
-4.028339862823486
-3.6732215881347656
-3.1788277626037598
-2.2646350860595703
4.914195537567139
-2.805403470993042
-0.006340742111206055
-0.19269168376922607
3.53230357170105
-3.371072292327881
0.534471869468689
-2.4113595485687256
1.6216659545898438
-3.6647260189056396
-3.335845470428467
-0.24959027767181396
-2.4264919757843018
-1.6189724206924438
-2.9166622161865234
3.561903953552246
-1.3116943836212158
-4.278670310974121
1.0489392280578613
-3.0099093914031982
-1.2310481071472168
-1.0226517915725708
-2.110805034637451
-0.5638879537582397
-2.632068395614624
4.417162895202637
-0.8556640148162842
-1.6549575328826904
-1.4119678735733032
2.604241371154785
0.5674916505813599
0.8901584148406982
4.555545330047607
4.07672643661499
0.9987008571624756
3.719961166381836
-2.0711212158203125
0.6809431314468384
0.2920573949813843
-2.890828847885132
-1.8146789073944092
-3.0606281757354736
0.721367597579956
1.924365758895874
0.33699333667755127
0.8779603242874146
1.8340283632278442
1.6574305295944214
0.3375321626663208
4.017212390899658
0.8180481195449829
-3.1415295600891113
-4.791022300720215
4.349572658538818
1.8764704465866089
3.983381986618042
-4.920130729675293
-2.1580309867858887
3.681344509124756
4.735372543334961
-0.6015908718109131
4.733017921447754
3.051532506942749
-0.8941066265106201
-3.132567882537842
-1.7884469032287598
1.9420218467712402
-4.403312683105469
2.7209997177124023
-0.804595947265625
-0.44481396675109863
4.525024890899658
3.187000274658203
1.2613928318023682
-0.1738947629928589
-4.720831394195557
3.9987354278564453
1.3504523038864136
-0.8347195386886597
0.20721852779388428
2.0550215244293213
1.882789134979248
-0.33515453338623047
-2.79726505279541
-0.5121994018554688
-1.7793464660644531
-1.9781297445297241
-0.3860187530517578
0.9650760889053345
-2.9796619415283203
1.269029974937439
-3.124289035797119
4.802633285522461
-1.413537859916687
2.624464511871338
-2.8252668380737305
-1.0705828666687012
2.7027292251586914
-2.9939074516296387
-4.149004936218262
4.778576850891113
-1.957349181175232
-1.840950846672058
0.3486776351928711
-2.629495143890381
0.7959985733032227
2.107903480529785
-3.9827585220336914
3.108130693435669
-3.1270253658294678
3.48844051361084
2.477161407470703
-1.2077254056930542
2.415571689605713
-2.0109128952026367
-0.42796075344085693
-4.959091663360596
0.45780062675476074
0.9227365255355835
-4.002859592437744
4.3972344398498535
3.693208694458008
-3.8298237323760986
4.799477577209473
1.9549906253814697
-1.6546130180358887
3.2323157787323
4.268017768859863
3.1142735481262207
-3.8327856063842773
1.7768430709838867
2.862344264984131
-3.812592029571533
-2.654006004333496
1.274065375328064
4.258240699768066
4.863436222076416
-1.5509390830993652
-1.4740806818008423
-3.7803709506988525
-1.8458938598632812
-3.9509570598602295
3.072195053100586
1.6447103023529053
0.3077048063278198
-1.9831842184066772
1.6108644008636475
4.992870807647705
-4.505196571350098
3.0170392990112305
-0.7717794179916382
4.4971723556518555
-2.1718053817749023
1.9955509901046753
0.9637916088104248
3.6302928924560547
-4.254281520843506
-1.423993706703186
0.13038575649261475
1.65141761302948
-3.9920341968536377
3.607165813446045
4.998114109039307
-3.4444522857666016
-0.12674272060394287
0.6006717681884766
-2.408998489379883
-2.880753993988037
-3.478989601135254
-3.393181562423706
4.125338077545166
-1.8617022037506104
3.8942880630493164
-2.0163047313690186
-2.739109992980957
2.4398059844970703
-2.003222703933716
3.4704394340515137
4.091463088989258
-0.7132625579833984
-0.23626089096069336
1.581701636314392
-1.5466868877410889
4.746041774749756
-3.8330583572387695
4.357548713684082
1.4929205179214478
0.23755669593811035
4.727822303771973
1.3469403982162476
4.855477333068848
-0.49835801124572754
-0.6000548601150513
2.945883274078369
-2.2910690307617188
-3.293257236480713
0.42125940322875977
0.0818711519241333
3.0139060020446777
3.3580005168914795
1.5901768207550049
2.1190876960754395
2.9265987873077393
4.464992523193359
-0.8705276250839233
-1.2049740552902222
-4.549330711364746
4.3873701095581055
-3.7075412273406982
-2.813995361328125
-1.0629600286483765
-4.385585308074951
4.841781139373779
-4.0100250244140625
1.8006789684295654
4.067501544952393
-3.0211257934570312
-3.1801538467407227
-2.0547242164611816
-1.6314095258712769
0.9892117977142334
3.385281562805176
4.455935955047607
-2.175285816192627
-1.6562390327453613
2.2278242111206055
4.763579368591309
0.9759247303009033
-4.90937614440918
3.541808605194092
4.860849380493164
-1.3134998083114624
2.6940572261810303
3.196542739868164
1.4474213123321533
-0.42334020137786865
2.923415184020996
0.6647825241088867
2.823420763015747
1.6513627767562866
3.635983943939209
-4.3942413330078125
-3.3148908615112305
-0.7532352209091187
1.2901651859283447
4.4515156745910645
3.9903111457824707
4.75278377532959
-3.494600772857666
-1.2371420860290527
-2.9333252906799316
-2.742661237716675
-1.0298603773117065
-1.728276014328003
-0.02049386501312256
-3.524191379547119
1.2879770994186401
2.482680082321167
3.734501600265503
-2.3339617252349854
0.02465963363647461
-2.804123878479004
1.5724867582321167
-1.8210935592651367
-0.8633065223693848
3.2220559120178223
-4.142341613769531
-3.242565393447876
2.267930507659912
-1.5719705820083618
-2.161464214324951
4.480395793914795
-1.9820702075958252
-4.224257946014404
1.8738418817520142
-0.4378950595855713
-3.580018997192383
-3.4468727111816406
3.0969929695129395
4.187864780426025
-3.4961657524108887
2.050139904022217
0.5072939395904541
-1.2903624773025513
-1.7740404605865479
-1.3252437114715576
-0.7810038328170776
-0.7193529605865479
-2.722592830657959
1.2535077333450317
-3.8020002841949463
-1.7913639545440674
-3.3438920974731445
-0.0021511316299438477
2.9284238815307617
-0.30041396617889404
3.528108596801758
-3.5238993167877197
-2.233048677444458
-3.602814197540283
-3.806694746017456
-1.298133134841919
-3.5175161361694336
-2.745082378387451
2.0896072387695312
1.0809576511383057
4.894177436828613
4.270151138305664
0.1701587438583374
0.05349934101104736
-4.604426383972168
2.83227801322937
-3.092374801635742
4.585823059082031
4.300732135772705
-2.3349595069885254
-4.864803314208984
3.6239147186279297
-1.284242868423462
-2.741537570953369
-4.775341033935547
1.7889362573623657
-3.5972440242767334
4.376095771789551
3.3077902793884277
4.204153537750244
-4.22860050201416
-2.3172860145568848
-3.270319700241089
0.776214599609375
3.6452019214630127
0.1666259765625
1.324021816253662
-3.4467787742614746
-1.7238038778305054
-1.864047646522522
2.8447608947753906
-4.855401039123535
3.7247471809387207
0.8625155687332153
-1.3192248344421387
-3.5329949855804443
-1.7859447002410889
-4.950494766235352
-0.6931215524673462
3.2861108779907227
4.475889682769775
1.2352120876312256
-1.4470738172531128
-4.177899360656738
0.020975470542907715
-4.053476333618164
0.2519923448562622
2.899423837661743
2.321162223815918
-4.779595375061035
-3.01143217086792
-2.7727973461151123
0.2392822504043579
2.263436794281006
-3.880173683166504
2.030531167984009
2.875856876373291
-3.831015110015869
3.879798650741577
4.705690383911133
-0.959734320640564
-4.684592247009277
0.8715850114822388
-1.1086541414260864
0.5496132373809814
0.28977155685424805
0.5616694688796997
0.4365706443786621
-4.205502510070801
-2.2110848426818848
-3.750800609588623
1.4648377895355225
3.8016581535339355
1.2188804149627686
4.409470558166504
3.9969606399536133
-4.785223484039307
1.826217770576477
2.103492021560669
4.4775848388671875
4.083461284637451
-1.2614977359771729
0.38461267948150635
-0.22220909595489502
1.5048742294311523
-1.2393999099731445
2.1800053119659424
-4.294632911682129
-0.5579984188079834
0.06824254989624023
3.121936321258545
0.28545379638671875
-4.5820465087890625
4.867940425872803
4.175047874450684
-4.22528076171875
-1.7411845922470093
-2.1349239349365234
0.8563679456710815
-2.104402780532837
3.1617283821105957
2.1192777156829834
1.3608503341674805
-4.366908550262451
4.664421081542969
-4.906645774841309
4.2544026374816895
-4.70867395401001
-3.3168601989746094
2.8507041931152344
0.6275457143783569
3.6825764179229736
4.794705390930176
3.264188289642334
-0.9540069103240967
-4.703451156616211
2.0235342979431152
2.5110392570495605
-1.598975658416748
0.20687639713287354
2.245272397994995
-2.8060710430145264
1.2449854612350464
4.1062469482421875
-3.8439841270446777
-4.795612335205078
1.5695321559906006
0.16849935054779053
1.8317347764968872
-3.6056394577026367
-2.2986702919006348
-1.9810503721237183
2.999868869781494
2.61383056640625
-4.711784839630127
-3.287104368209839
3.078371286392212
0.482599139213562
2.745866298675537
2.692720890045166
-3.84736967086792
-1.9258779287338257
3.329643726348877
-3.211451768875122
-1.2654757499694824
3.586587905883789
3.7685704231262207
-4.325533866882324
-0.7113921642303467
4.055428504943848
-0.49033403396606445
-2.823234796524048
-0.9424251317977905
0.6224828958511353
4.713716506958008
-2.5066022872924805
-4.856663703918457
3.1267600059509277
0.6417876482009888
3.922208547592163
-0.3967320919036865
-3.4669179916381836
-3.3195037841796875
3.963012218475342
0.5366748571395874
-0.41308581829071045
2.459583282470703
0.6649583578109741
-1.1713647842407227
-1.8981188535690308
-0.9147930145263672
2.5019264221191406
-2.017061233520508
1.382366418838501
-0.004514455795288086
1.6971558332443237
1.9397026300430298
-3.20481014251709
3.171207904815674
-1.7375290393829346
4.094672203063965
-0.3243011236190796
3.0156211853027344
3.70206880569458
-0.8943814039230347
0.23517310619354248
2.0454108715057373
1.6469228267669678
1.207374930381775
-3.5152034759521484
-4.71580696105957
-3.919346809387207
-0.5871874094009399
-0.6304675340652466
-2.124842405319214
-2.60520339012146
1.435685157775879
-0.8178305625915527
3.667235851287842
3.5304784774780273
-3.2527823448181152
-1.8210309743881226
-2.603083848953247
-3.1593899726867676
1.7172348499298096
4.325423240661621
-0.6155997514724731
-3.885867118835449
0.16957521438598633
2.851435661315918
1.4682936668395996
-0.829920768737793
4.30859375
2.2840137481689453
-0.9212595224380493
1.4389950037002563
-0.7117366790771484
-2.2474145889282227
3.037459373474121
4.543690204620361
-0.33157050609588623
-1.5659207105636597
-2.201664924621582
0.7675296068191528
4.6360673904418945
-3.7652838230133057
0.609133243560791
1.8101221323013306
-2.3038136959075928
-3.687708854675293
-0.5301433801651001
-4.112978458404541
4.121748924255371
-4.648098468780518
1.0538876056671143
-3.801981210708618
-1.1096656322479248
3.05126953125
2.9930777549743652
-3.610069751739502
-0.7457661628723145
4.88687801361084
-3.5624260902404785
-2.1469008922576904
-0.8516019582748413
-2.336693286895752
3.6965930461883545
-0.973321795463562
2.7456676959991455
4.440274715423584
0.37863850593566895
0.6517046689987183
-1.7042797803878784
0.5688959360122681
-1.7669063806533813
-4.900355815887451
0.7387900352478027
0.8892583847045898
-0.3591465950012207
-3.4390134811401367
-4.549646854400635
-0.5847549438476562
1.7184489965438843
-0.7629472017288208
-2.9566848278045654
-4.052014350891113
-2.983266830444336
-0.9053194522857666
4.341334342956543
0.8896178007125854
2.0244157314300537
2.8255414962768555
4.227900505065918
2.583301067352295
-2.009598731994629
-1.0300493240356445
1.0593867301940918
0.21234214305877686
3.15987229347229
-1.2526893615722656
4.623342037200928
-2.92448091506958
-3.4549307823181152
-0.8427989482879639
4.017597198486328
2.3078548908233643
4.065889835357666
-2.121506929397583
-1.9659405946731567
-3.4588074684143066
-1.8487989902496338
-2.5679917335510254
4.272690773010254
2.0833473205566406
-3.301082134246826
-3.9504761695861816
0.31133413314819336
-2.2940726280212402
-0.6825155019760132
0.30413031578063965
-4.252479076385498
4.617884635925293
0.8356350660324097
2.430967092514038
-4.853001117706299
4.494692802429199
-0.35024821758270264
-4.4385480880737305
-0.8753985166549683
4.142928123474121
2.2135276794433594
-3.0023252964019775
-4.403324127197266
-0.6003618240356445
3.1539881229400635
1.8874120712280273
1.2371623516082764
3.869004726409912
1.5685462951660156
2.9761366844177246
-3.6954541206359863
-4.959470748901367
-0.8769142627716064
1.7936831712722778
-4.846654415130615
0.949600338935852
0.8909392356872559
-0.005682706832885742
2.1770267486572266
-2.149524211883545
-0.6369680166244507
-1.5444356203079224
4.830798149108887
2.1721792221069336
-0.20736217498779297
-4.969773292541504
4.3406243324279785
-4.6002960205078125
-2.257291078567505
-2.0542538166046143
2.2130632400512695
-3.672429323196411
-0.7356691360473633
1.1949414014816284
-0.38038432598114014
2.5127129554748535
0.09251952171325684
-4.167168140411377
3.9458096027374268
-1.3672244548797607
2.297630786895752
-1.1122781038284302
-4.5178914070129395
-0.9607696533203125
-2.6694345474243164
1.1441713571548462
-0.48992693424224854
1.068582534790039
0.8574992418289185
-0.07465064525604248
-1.5715807676315308
3.9069461822509766
2.3611080646514893
1.2882983684539795
2.5013427734375
0.042220354080200195
-3.4876365661621094
2.8747386932373047
0.13359248638153076
-4.0858893394470215
1.7685765027999878
-1.3095605373382568
2.027440071105957
-0.6034225225448608
-2.335866689682007
-2.992647171020508
2.3062872886657715
1.6126233339309692
-3.3786213397979736
3.615281581878662
1.754804253578186
2.461374282836914
-0.2324312925338745
3.0458807945251465
-1.8108642101287842
4.5873613357543945
2.8033220767974854
-2.065617561340332
0.0019162893295288086
1.577986478805542
-3.8117563724517822
1.188114881515503
-4.09892463684082
-1.544974446296692
0.20642101764678955
1.4413154125213623
-4.539743423461914
-2.6715564727783203
-3.579406261444092
0.7698911428451538
-3.589949607849121
-2.014092206954956
1.8474280834197998
-4.274168968200684
-0.382692813873291
2.5604677200317383
-4.727687835693359
1.3684380054473877
-3.1751465797424316
-1.1054784059524536
-1.4885914325714111
0.5890411138534546
-1.237223744392395
-1.7757606506347656
1.3186228275299072
2.149405002593994
-2.0922083854675293
-2.9498510360717773
1.8792158365249634
4.51481819152832
-4.421663761138916
-0.9771060943603516
-4.560275554656982
4.825314521789551
3.2352380752563477
2.125903367996216
-0.7382792234420776
3.8083064556121826
2.7428359985351562
-3.0723958015441895
0.5769604444503784
-4.279874801635742
-3.728990077972412
-0.9649813175201416
-3.957812786102295
4.670660018920898
-1.2709397077560425
-0.2805900573730469
1.9780462980270386
4.12405252456665
0.767936110496521
2.895620346069336
-2.280824661254883
-1.3001996278762817
-0.9752261638641357
-0.10619878768920898
3.148939609527588
-2.6252686977386475
-0.6241661310195923
-0.2796560525894165
2.045895576477051
-4.909781455993652
4.379909038543701
-3.499629497528076
-3.5102920532226562
-2.084707736968994
-4.890468597412109
-4.455284118652344
3.1779308319091797
2.150524139404297
1.363411545753479
-1.2112981081008911
-0.8359766006469727
3.9568262100219727
0.4184412956237793
1.2883168458938599
3.969773769378662
-3.3343381881713867
-0.4926043748855591
-4.107031345367432
4.136658191680908
3.3122193813323975
-1.0003966093063354
-0.7147067785263062
-0.3983694314956665
2.101417064666748
3.622884750366211
1.2115609645843506
3.5106515884399414
-0.5297553539276123
-3.791015625
0.12589991092681885
-4.42852258682251
-4.317968368530273
-0.5094164609909058
3.6243700981140137
-3.694451332092285
0.04329085350036621
4.951226711273193
-4.7816972732543945
-4.246662139892578
-0.032550692558288574
-3.938253402709961
0.2392113208770752
-4.359593391418457
0.34902870655059814
-4.734071731567383
1.3099604845046997
1.701309084892273
-3.2850635051727295
-2.451653480529785
-3.029834032058716
0.9200161695480347
-0.9242093563079834
-2.521085262298584
-1.8995130062103271
2.6698355674743652
-0.46950995922088623
4.338411331176758
3.9244775772094727
-0.9299498796463013
-1.2666147947311401
0.7498699426651001
-0.967034101486206
-3.0757176876068115
-2.9013192653656006
2.541504383087158
2.3109519481658936
-4.873379707336426
0.9055155515670776
1.1230748891830444
-1.6317260265350342
-1.168152093887329
0.6252700090408325
-1.8490046262741089
-1.6183710098266602
-3.442000150680542
-4.803063869476318
-4.224108695983887
4.727038383483887
2.951390266418457
-2.464867115020752
3.303887367248535
-2.220144748687744
-2.418999195098877
1.2079191207885742
3.0600321292877197
2.4264466762542725
-4.118254661560059
-1.5612560510635376
-1.0743820667266846
0.5916744470596313
-0.5681884288787842
4.870575904846191
1.1435234546661377
-2.8558130264282227
-1.0183608531951904
-4.086338043212891
0.16639173030853271
3.383810043334961
0.06081581115722656
4.046010971069336
1.5866917371749878
1.7093932628631592
0.2403014898300171
1.7431730031967163
-1.5327686071395874
-0.43967127799987793
2.0432167053222656
3.408249616622925
-1.9766342639923096
1.1505311727523804
1.5564173460006714
3.9124417304992676
-3.1619043350219727
3.4814071655273438
0.6320297718048096
-4.669661521911621
4.268891334533691
3.5227537155151367
-1.5259432792663574
-4.1167707443237305
2.9870331287384033
-3.0385541915893555
4.82729434967041
1.7399579286575317
0.6394433975219727
4.492321491241455
3.0277462005615234
-1.548561453819275
-1.6915112733840942
-0.9998834133148193
3.0951027870178223
1.72635018825531
2.0425164699554443
-0.8267277479171753
-3.235145092010498
-1.1625516414642334
-0.5794692039489746
0.8987367153167725
1.9423234462738037
1.0573124885559082
-3.5136537551879883
4.291582107543945
0.24199247360229492
2.5674028396606445
2.9348838329315186
-0.724291205406189
-0.0623476505279541
2.704463481903076
-1.9435632228851318
-2.605325698852539
-2.6668806076049805
1.1743295192718506
3.450317859649658
-1.0814088582992554
1.9668936729431152
1.9769412279129028
4.1202239990234375
-2.4708306789398193
-2.459402561187744
2.781157970428467
-0.6209284067153931
-4.103323936462402
-1.4798521995544434
-4.0718584060668945
2.546325206756592
3.577374219894409
-2.8335790634155273
3.223405361175537
1.1476236581802368
-1.0931921005249023
2.630824565887451
4.327066421508789
1.0626965761184692
2.2730822563171387
0.6793767213821411
2.5275259017944336
1.5572834014892578
3.4364736080169678
2.721198081970215
-1.324702501296997
-2.4715781211853027
-2.1901745796203613
-3.095090389251709
-4.71841287612915
-1.353302001953125
-0.9979510307312012
3.0564606189727783
-3.497436046600342
-3.1432604789733887
-1.0901886224746704
0.7679736614227295
3.718174695968628
-2.732482433319092
4.45639181137085
4.768999099731445
0.48833727836608887
-2.3976893424987793
-2.760664224624634
0.23517251014709473
-0.8248978853225708
-3.2338976860046387
0.1588273048400879
-0.5130892992019653
-4.1661834716796875
-1.186385154724121
3.136566162109375
-0.168992280960083
1.007722020149231
-1.3416999578475952
-1.3381338119506836
4.485496997833252
4.748150825500488
-4.348236083984375
0.7601463794708252
-3.3559341430664062
1.9973349571228027
-0.009046792984008789
-2.5071496963500977
2.977780818939209
3.914670467376709
0.4898965358734131
4.972164630889893
2.0924925804138184
-4.1666083335876465
-4.797060966491699
-1.4049530029296875
-4.330164909362793
-0.6326335668563843
4.732722282409668
-3.4634029865264893
2.8841114044189453
-4.657115459442139
1.7301982641220093
-0.958484411239624
0.02897500991821289
3.33481502532959
-4.566331386566162
0.5444240570068359
-2.4149155616760254
-0.201452374458313
2.3433284759521484
-3.2535643577575684
1.847650408744812
-0.7018202543258667
-0.06252944469451904
-4.630812644958496
1.0019862651824951
-4.141851425170898
0.26297450065612793
3.072385311126709
-0.36687910556793213
4.7618937492370605
1.238945722579956
-4.088154315948486
-2.814279079437256
-0.52959144115448
1.4673805236816406
1.468396782875061
-3.887230157852173
-3.9499282836914062
-3.475928783416748
-4.588655471801758
3.2816977500915527
-4.571254253387451
2.2881174087524414
-2.4275522232055664
2.717183828353882
-4.181346893310547
1.4473867416381836
4.677420139312744
0.679212212562561
-2.837737798690796
-0.6158721446990967
1.573367714881897
2.287879467010498
1.9127273559570312
3.1001222133636475
-3.7552881240844727
-3.0460119247436523
1.824101209640503
3.49088191986084
-1.9490259885787964
2.4538326263427734
-4.299541473388672
-4.663641452789307
3.6523513793945312
1.9513529539108276
4.7704877853393555
-2.0394234657287598
1.9995713233947754
-2.869271755218506
-0.9205365180969238
1.149895191192627
2.8207695484161377
4.023538589477539
3.119485855102539
-1.959061622619629
2.2887892723083496
-3.580883026123047
1.9784659147262573
-1.8675822019577026
3.3275299072265625
-2.086890935897827
0.23669898509979248
-2.9156394004821777
-4.572955131530762
-4.187578201293945
-3.633513927459717
4.69392204284668
2.276604652404785
4.065533638000488
1.7158418893814087
1.435704231262207
3.166761875152588
4.07302188873291
-1.466209888458252
-3.310734748840332
2.410548210144043
0.2574491500854492
-1.2946730852127075
-3.383729934692383
-2.7732033729553223
-4.605621814727783
-1.2767177820205688
-3.6299121379852295
-0.8673650026321411
0.34314751625061035
-3.7223033905029297
3.6030750274658203
3.206338882446289
-4.460536003112793
-3.9320480823516846
-1.8307524919509888
-1.8139135837554932
1.6503769159317017
2.946944236755371
-4.503300666809082
3.62591552734375
3.5304994583129883
-2.770533561706543
-1.2746983766555786
-3.1198973655700684
2.09751558303833
2.4094772338867188
1.6776204109191895
-3.0450820922851562
0.16228020191192627
-0.8650577068328857
1.7674541473388672
-3.0425257682800293
0.4577350616455078
0.11765182018280029
-1.3299000263214111
-4.528579235076904
2.121128559112549
-0.22661924362182617
2.006789445877075
-3.5338425636291504
-1.6382437944412231
-4.6094512939453125
4.364299774169922
-0.15111029148101807
-4.1862101554870605
-3.8597984313964844
-3.9825165271759033
1.3272392749786377
0.6093323230743408
4.424836158752441
4.99148416519165
2.475688934326172
-1.8546533584594727
-4.892217636108398
2.2420973777770996
4.684328079223633
1.1506009101867676
0.7892704010009766
2.3037683963775635
4.687148094177246
2.4324769973754883
1.2518304586410522
-3.282064199447632
3.5744590759277344
-4.298032760620117
-2.2303879261016846
1.7790436744689941
-4.673742294311523
-3.6018152236938477
-4.522091865539551
-4.103158950805664
-2.021796703338623
-1.6228026151657104
1.276400089263916
1.3533300161361694
-0.6521058082580566
-4.233641147613525
-0.33065617084503174
3.018695831298828
-3.1132733821868896
-1.0570961236953735
2.9362659454345703
4.176955699920654
-4.457176208496094
1.3592982292175293
-4.482753276824951
-0.1007157564163208
-0.3338611125946045
-0.6513524055480957
0.4581505060195923
-1.802392601966858
1.8815261125564575
-0.20138442516326904
0.1952826976776123
1.7060673236846924
-1.295454502105713
3.0353612899780273
-3.6010007858276367
-0.007573366165161133
-4.535758018493652
-2.0803236961364746
-2.3936824798583984
-1.679200530052185
1.0947901010513306
-1.808154582977295
-2.950791120529175
0.20297765731811523
1.6124534606933594
-1.167980432510376
1.554996371269226
2.225825786590576
2.9359591007232666
-3.3924121856689453
0.3163045644760132
3.1710429191589355
3.2483463287353516
3.192946434020996
-3.610219955444336
-0.49872756004333496
-0.27070581912994385
3.061173439025879
-4.793963432312012
3.9298534393310547
-2.617372989654541
2.7087533473968506
1.4099013805389404
-2.5167579650878906
0.2992367744445801
-3.712925434112549
-4.21673059463501
1.5744918584823608
0.26739656925201416
4.137835502624512
-2.35282301902771
-0.09148240089416504
-0.31208932399749756
1.4796215295791626
-0.6592381000518799
-0.7831412553787231
-3.430392265319824
1.142156720161438
-0.4904603958129883
-2.040844440460205
-1.448580026626587
-3.978530168533325
1.912129521369934
-2.77528715133667
0.7819712162017822
-1.7816489934921265
-0.7873690128326416
3.520765781402588
2.7289276123046875
4.664893627166748
4.235971450805664
-1.7490321397781372
1.0119837522506714
-4.363018989562988
-1.0722625255584717
-0.8188611268997192
-3.1394529342651367
-2.2522354125976562
-2.188617706298828
-0.32146334648132324
-3.723888397216797
-3.1717538833618164
4.138799667358398
-1.978716254234314
0.19766032695770264
-3.8079400062561035
3.780721426010132
1.5376698970794678
-1.5250521898269653
-0.025296807289123535
1.828191876411438
-4.911161422729492
1.0793691873550415
0.011304616928100586
-2.9662294387817383
-4.303111553192139
-0.6634628772735596
3.7063229084014893
-1.1995881795883179
1.5941888093948364
-1.0586661100387573
2.8443193435668945
4.148072242736816
-4.814783096313477
0.7888489961624146
2.740467071533203
-1.2952220439910889
2.3325343132019043
-0.8216351270675659
3.6361968517303467
-3.4365463256835938
0.8726030588150024
4.458736896514893
3.06915283203125
1.1326837539672852
-3.3894734382629395
-3.300316333770752
-1.9965636730194092
-0.26552796363830566
-3.5829758644104004
2.293531894683838
-2.1317858695983887
2.541908025741577
3.043994426727295
-1.4041298627853394
-3.9513349533081055
4.912670135498047
1.3809239864349365
-4.337243556976318
4.687758445739746
-3.3000569343566895
-1.0063344240188599
4.979070663452148
0.4314148426055908
2.681285858154297
-3.273716449737549
4.721270561218262
1.6805624961853027
1.8402433395385742
-3.881319761276245
-0.2368640899658203
-1.6450738906860352
-3.6017823219299316
-3.4832584857940674
3.301487445831299
-4.365167617797852
2.789761543273926
4.553080081939697
-0.0820702314376831
3.7949628829956055
-0.7012069225311279
4.586847305297852
-2.848879098892212
-2.5999956130981445
-1.0469210147857666
-0.45163393020629883
2.5621228218078613
1.7751455307006836
1.1680477857589722
-4.817356109619141
4.944275856018066
0.9290474653244019
3.227912187576294
-3.924426555633545
4.151369094848633
4.78432559967041
-0.7870340347290039
2.1344523429870605
2.167485237121582
2.6787023544311523
-1.1567598581314087
4.973850250244141
2.5350308418273926
3.0483012199401855
1.9918286800384521
-2.281339645385742
-2.1969728469848633
-0.8905315399169922
-2.536985397338867
-4.817279815673828
0.1780378818511963
-4.444665908813477
2.7323431968688965
1.8557250499725342
1.628347635269165
-3.4459452629089355
-0.9174609184265137
-4.324891567230225
-3.1833653450012207
-0.21891415119171143
1.149948239326477
1.9930499792099
0.8215349912643433
3.1413464546203613
3.705646514892578
-1.7301368713378906
-4.294839382171631
-2.9837429523468018
-1.1646479368209839
-0.23238599300384521
3.3119778633117676
-3.205007314682007
0.6327909231185913
4.841346740722656
-0.130082368850708
2.723315954208374
-1.2200498580932617
-1.2168365716934204
-2.4235570430755615
-2.2083818912506104
-2.0199756622314453
4.334132671356201
2.056567668914795
-4.918091773986816
2.066514015197754
-2.510542392730713
-4.801259517669678
-3.6715281009674072
1.0727214813232422
-0.08644759654998779
-4.1133527755737305
-4.423076629638672
-3.146028518676758
-4.234972953796387
-2.8149490356445312
-0.05910634994506836
-0.33934712409973145
-4.10037899017334
-4.103157997131348
2.275291681289673
-0.0797426700592041
-3.054318428039551
-2.466254234313965
3.8619608879089355
-1.636115312576294
-4.4130706787109375
-2.26181697845459
4.220755100250244
4.39634895324707
-0.7226401567459106
-3.6816930770874023
-2.7689056396484375
-0.46561717987060547
-3.429309129714966
-3.7716567516326904
-0.27840495109558105
-3.9937496185302734
2.0707101821899414
1.1142247915267944
-0.5646014213562012
2.8060901165008545
-0.22080600261688232
-1.8212807178497314
2.214463233947754
4.121814727783203
2.1961474418640137
-0.01449882984161377
3.806922435760498
1.006627082824707
2.0555007457733154
-1.0409855842590332
4.858200550079346
3.2479584217071533
-4.018059253692627
1.443668007850647
0.4010099172592163
-2.1833252906799316
-0.16370534896850586
-3.3844590187072754
-0.9552901983261108
-4.827068328857422
0.06422102451324463
-3.1980104446411133
-4.354650497436523
-1.4115393161773682
3.243375301361084
-4.974518299102783
2.6096577644348145
1.9499766826629639
2.2866315841674805
-1.8302232027053833
4.276288986206055
2.0726966857910156
-4.266628265380859
-1.9521361589431763
0.6839901208877563
-4.8791656494140625
0.3586554527282715
0.9665173292160034
-1.8315738439559937
-2.5463314056396484
4.343810081481934
-0.0769805908203125
-4.152063369750977
-2.851806163787842
1.655510663986206
3.282790184020996
-2.584537982940674
-1.9448965787887573
-0.47122836112976074
3.275811195373535
4.532393455505371
-3.1066603660583496
2.278794765472412
-4.325310707092285
1.3347256183624268
0.3548014163970947
1.594940423965454
4.993932723999023
3.4582715034484863
2.156865119934082
-2.7040748596191406
4.050755023956299
0.9447509050369263
4.533937454223633
2.8289198875427246
1.9810950756072998
3.312605619430542
-1.2055104970932007
-3.062277317047119
-4.804825305938721
-0.0952523946762085
0.6873005628585815
0.5492806434631348
3.3259308338165283
-3.16909122467041
-2.273362159729004
-4.542668342590332
-0.8317118883132935
-2.0932669639587402
3.0336523056030273
-3.4781229496002197
2.7809696197509766
4.988480091094971
-1.7204171419143677
0.33998429775238037
-4.664821624755859
-0.9244245290756226
2.9907631874084473
2.4445443153381348
-4.387956142425537
-1.9009333848953247
-1.272391676902771
-0.39804279804229736
-0.9045863151550293
-1.9408702850341797
0.8175837993621826
-0.4626220464706421
-3.142993927001953
-1.7225289344787598
2.6497650146484375
4.028382301330566
4.521770000457764
-1.8198871612548828
4.676393508911133
2.6673591136932373
3.8236522674560547
-4.056570053100586
2.7714598178863525
-0.6265747547149658
4.063014030456543
-0.7266819477081299
-4.569343566894531
-4.10882043838501
4.260263442993164
-4.1727423667907715
2.3302359580993652
0.7826417684555054
0.22561132907867432
-2.353792667388916
-4.730276584625244
-3.182305097579956
3.048189163208008
-2.716520309448242
-2.313243865966797
-2.003824234008789
-4.27852201461792
-3.022104501724243
-1.6606223583221436
1.7715144157409668
4.494415283203125
-0.3731358051300049
4.896139621734619
-4.747219562530518
-2.0463407039642334
-3.0890254974365234
1.9576478004455566
2.3818044662475586
4.343078136444092
-4.324021339416504
-2.7385592460632324
4.2384748458862305
0.9090983867645264
-4.407408714294434
-2.291820526123047
-3.074521541595459
-4.521612167358398
-4.2774128913879395
0.5101948976516724
1.909971833229065
2.537398338317871
3.4856343269348145
2.7288455963134766
-3.478494882583618
3.9574646949768066
-0.2590775489807129
-2.833385467529297
-2.428154945373535
-1.4832210540771484
-1.602146029472351
2.851186990737915
-2.8968429565429688
-2.509921073913574
-2.190950393676758
1.9361323118209839
-4.802265167236328
3.943164825439453
-4.133827209472656
0.896645188331604
2.987600564956665
-3.2266831398010254
-2.564730644226074
-4.524348258972168
-2.3402881622314453
2.925623655319214
4.7854180335998535
-4.601550102233887
-3.182704448699951
1.1927217245101929
1.7656826972961426
4.791999340057373
-0.7337510585784912
2.3311376571655273
-4.514858722686768
-2.7065956592559814
3.665261745452881
4.317439079284668
4.494760036468506
4.692707538604736
1.8080896139144897
-0.0060427188873291016
-3.6648380756378174
4.715726375579834
4.176344394683838
1.3454514741897583
-4.291038513183594
-3.792600631713867
-2.827389717102051
-0.4104626178741455
-4.600094795227051
-1.0745453834533691
2.7591819763183594
0.19597768783569336
-2.1358590126037598
4.704699516296387
-3.488882064819336
4.070352554321289
-4.336421489715576
-2.3831372261047363
2.0486748218536377
0.2996331453323364
2.6306962966918945
2.5487165451049805
1.9298481941223145
-2.929385185241699
-4.087339401245117
-4.622318744659424
4.126307964324951
-1.6970282793045044
-2.563896656036377
-1.4291995763778687
1.7242538928985596
-2.9907803535461426
4.489158630371094
4.907838821411133
2.3157835006713867
-2.1174728870391846
-4.807302951812744
-0.6235963106155396
4.287503242492676
1.7549830675125122
-0.1824861764907837
-3.243194103240967
4.763972759246826
1.654515266418457
1.9192510843276978
-4.436470031738281
-1.0020583868026733
2.6655197143554688
-0.1399928331375122
-0.19845664501190186
2.4723024368286133
-3.2301597595214844
4.74812126159668
-0.7016158103942871
4.626587867736816
-4.429142951965332
2.469964027404785
-0.5375850200653076
-0.0387650728225708
2.200092077255249
-2.8445892333984375
-1.6245144605636597
-2.895430326461792
2.8451685905456543
-0.010991692543029785
-4.257662296295166
-3.669379949569702
4.94873046875
-0.8401763439178467
-4.116363525390625
-1.1482596397399902
-4.905241966247559
4.374074935913086
-1.4251750707626343
-1.8787652254104614
4.462645053863525
-2.2934107780456543
3.905794620513916
1.2915217876434326
3.1876916885375977
3.641838550567627
3.6794722080230713
3.0879318714141846
-0.6271636486053467
-3.513993740081787
4.300021648406982
0.6633812189102173
1.3602590560913086
-3.517336368560791
-1.8511813879013062
-4.23760986328125
-1.6410565376281738
-4.9680938720703125
-0.4596668481826782
4.793142795562744
-0.04231154918670654
-0.4768437147140503
1.3284170627593994
1.5135270357131958
-2.589125633239746
4.1035003662109375
1.8404126167297363
-4.9073100090026855
2.001317024230957
0.9058141708374023
3.2023329734802246
-4.293769836425781
-0.9481877088546753
-1.9252032041549683
-0.6602150201797485
3.7344284057617188
1.221681833267212
4.606269836425781
-0.5408275127410889
-1.4858722686767578
-4.809615612030029
-4.661023139953613
4.001198768615723
0.6822085380554199
0.45676589012145996
2.2230279445648193
-0.3108423948287964
3.9596951007843018
4.185783863067627
4.580809593200684
-2.9503989219665527
-0.9407538175582886
-1.6131067276000977
2.8515970706939697
2.7506179809570312
3.8350963592529297
4.438179969787598
-1.8215930461883545
4.277217388153076
0.19488751888275146
-0.5374693870544434
-2.905675172805786
1.2447011470794678
3.2996983528137207
1.3577312231063843
3.966305732727051
-4.654080390930176
1.615912914276123
-3.421466827392578
-1.7407631874084473
-4.750038146972656
-4.8446855545043945
1.9190609455108643
3.1250786781311035
-1.6628271341323853
2.234391689300537
-1.4418810606002808
2.365607738494873
3.9938926696777344
4.067778587341309
1.1740553379058838
-4.941625118255615
3.2315099239349365
-0.9670734405517578
4.83213996887207
-1.2990456819534302
2.976360321044922
0.3335535526275635
-1.9256395101547241
-0.2235090732574463
-4.256376266479492
-1.340532898902893
-2.166036367416382
4.36359977722168
3.2102787494659424
-4.817358016967773
3.745979070663452
4.526281833648682
-4.0041961669921875
-4.482324600219727
-0.42243897914886475
-0.5230998992919922
-1.2922382354736328
-3.9358532428741455
3.9618759155273438
4.190426349639893
4.88157844543457
-4.824809551239014
2.646165370941162
4.575676441192627
-1.8846189975738525
0.878416895866394
-1.0254859924316406
4.3247480392456055
4.653079032897949
-1.7890703678131104
-2.6088948249816895
-1.9576263427734375
-3.509960174560547
4.699775695800781
-1.9012349843978882
1.6105246543884277
-0.7402282953262329
4.983913898468018
-3.4747867584228516
-0.5901169776916504
3.6073737144470215
1.176425814628601
3.476661443710327
-1.0306090116500854
4.272846221923828
-3.7700624465942383
-4.50753927230835
3.849943161010742
-4.092520713806152
3.4991841316223145
-2.691054344177246
1.6216659545898438
-4.151309967041016
-2.121293067932129
2.0052294731140137
4.230484485626221
0.2081453800201416
-3.4017062187194824
-0.49558162689208984
-4.035370826721191
3.1165237426757812
1.0329270362854004
0.9629178047180176
-0.24776935577392578
-1.3463187217712402
3.057628870010376
-1.823413372039795
-4.694526672363281
-1.3805991411209106
-0.33787548542022705
1.600314974784851
4.364322662353516
-3.9821958541870117
0.1281946897506714
3.708131790161133
-4.795635223388672
-3.005563735961914
-0.7621657848358154
2.1614723205566406
3.9106857776641846
2.4419398307800293
4.177885055541992
-1.7927682399749756
-3.533747673034668
2.9472434520721436
-0.7269006967544556
3.6545472145080566
-1.726677417755127
-3.034301280975342
1.9320672750473022
-3.9042115211486816
-4.334244728088379
-4.242779731750488
1.528065800666809
-1.6846364736557007
3.6556458473205566
-0.20583927631378174
4.939613342285156
-1.7018681764602661
1.4976775646209717
-0.9555399417877197
3.5047788619995117
0.29220402240753174
0.5884438753128052
4.147002696990967
4.841591835021973
2.039778709411621
0.2163916826248169
1.3356906175613403
3.778113842010498
-4.238383769989014
-4.756993293762207
1.747388243675232
2.2249066829681396
0.6193435192108154
4.960536956787109
-4.914186000823975
1.6961157321929932
-2.805237293243408
-4.799602031707764
-0.46606123447418213
1.1107522249221802
2.6827187538146973
1.8551898002624512
-0.7567727565765381
-0.9681743383407593
1.8161439895629883
-4.047184467315674
-0.983014702796936
4.457822799682617
-1.4928460121154785
0.4418504238128662
3.1912665367126465
-4.719972610473633
-2.568751573562622
1.1024361848831177
3.850694179534912
3.4527997970581055
1.5938735008239746
-2.7926878929138184
-2.045243978500366
1.466153860092163
-0.2530175447463989
-2.524915933609009
-4.34444522857666
4.815722465515137
-2.5285987854003906
-1.2343305349349976
3.929769515991211
-0.4290658235549927
4.068487167358398
-3.819471597671509
2.9011006355285645
-4.134586334228516
-1.9722402095794678
-4.406571865081787
3.0763721466064453
-4.026812553405762
0.828203558921814
2.028158187866211
2.746638059616089
-3.329782009124756
-1.0817533731460571
-1.8741196393966675
-2.491762638092041
-2.325509786605835
-1.2121671438217163
-3.3537566661834717
1.1381280422210693
2.25189208984375
-0.3635185956954956
4.49362850189209
-4.2803215980529785
-0.5067145824432373
1.9510895013809204
-4.845062255859375
2.1722774505615234
-4.4844489097595215
0.6899625062942505
3.2113094329833984
2.3097710609436035
-1.097680926322937
-3.765079975128174
2.307638645172119
3.7642717361450195
3.3461713790893555
-0.012639760971069336
4.726310729980469
-3.0050997734069824
2.732119083404541
-0.23088574409484863
1.6422659158706665
2.9934840202331543
4.142210006713867
1.0233032703399658
2.8934555053710938
3.9451754093170166
-3.4254331588745117
-3.670982837677002
0.37347733974456787
1.1518752574920654
4.949492454528809
-1.2625664472579956
1.1623305082321167
3.036832332611084
3.3944356441497803
4.853302001953125
3.5087990760803223
-4.517308235168457
0.3135955333709717
-4.971988201141357
-1.4528459310531616
0.4818516969680786
2.5930862426757812
-0.74146568775177
2.986081838607788
1.8724721670150757
2.986522912979126
4.81636905670166
-2.70524263381958
-2.5223124027252197
4.5673675537109375
1.8345272541046143
1.506674885749817
0.3472423553466797
-1.2964433431625366
-4.712964057922363
-2.425508975982666
2.0141220092773438
-1.3319391012191772
0.389249324798584
-3.82186222076416
3.1241893768310547
3.3887524604797363
-4.530634880065918
4.484525680541992
0.7809120416641235
4.386075973510742
4.009310722351074
4.082280158996582
3.182981014251709
1.3525974750518799
0.6800085306167603
-0.7977259159088135
-4.760957717895508
-3.419114351272583
4.811820983886719
0.4487621784210205
-0.15370607376098633
-2.6870298385620117
-3.4883956909179688
-0.797695517539978
-1.649985909461975
-4.385430335998535
3.385684013366699
0.24144530296325684
-3.3029870986938477
3.4005749225616455
0.031557679176330566
2.1233773231506348
-3.798226833343506
2.366114854812622
3.7551422119140625
-4.345855712890625
-3.6900715827941895
4.70263671875
1.645810604095459
4.086892604827881
1.8264907598495483
-3.7255125045776367
-0.35432398319244385
-4.735637187957764
-4.261312484741211
3.353701114654541
-0.3139936923980713
-3.9477312564849854
-3.1254286766052246
1.7952901124954224
-2.4078989028930664
-4.591923713684082
-3.525892496109009
1.6999661922454834
1.194482445716858
1.1404603719711304
0.49089789390563965
4.954671382904053
4.0009918212890625
0.7155543565750122
2.67787504196167
-0.3563421964645386
-3.3899712562561035
1.7650365829467773
3.7334561347961426
-2.954540252685547
2.664316177368164
-1.3123160600662231
1.8960392475128174
-0.08347392082214355
3.0983643531799316
-2.119063138961792
2.18113374710083
-3.0656611919403076
-3.5815632343292236
2.694195508956909
3.1695914268493652
-2.2633652687072754
1.1248230934143066
-3.3057749271392822
-1.0033762454986572
-3.0647969245910645
1.6523951292037964
-1.1603331565856934
-1.515175700187683
-1.9298279285430908
1.5327101945877075
-0.22812843322753906
-4.358002662658691
-0.24733901023864746
-2.8083391189575195
4.770102500915527
4.844043254852295
4.550114154815674
-4.130638122558594
-4.35120964050293
-2.3113327026367188
-4.38902473449707
-0.28169989585876465
2.6823699474334717
-4.112393856048584
-1.0038721561431885
0.9929084777832031
4.750065803527832
-1.2799173593521118
-0.642426609992981
-3.6642253398895264
4.550709247589111
3.9611458778381348
-0.5648010969161987
0.09628474712371826
-1.2705045938491821
-3.805340528488159
-2.933424711227417
4.89898681640625
-4.20277214050293
-2.4599766731262207
-3.7989628314971924
-1.8286973237991333
-0.6819283962249756
0.46661317348480225
-3.2185959815979004
-4.6756696701049805
-2.431415319442749
3.482311964035034
0.9019953012466431
1.010044813156128
0.46817541122436523
-4.62143611907959
3.7094979286193848
-4.5827860832214355
-2.029540538787842
-2.6592981815338135
0.6848925352096558
-1.0055261850357056
-1.477506160736084
-2.727386951446533
-0.15525221824645996
-3.274962902069092
1.2024778127670288
1.408069133758545
-4.50747537612915
1.0542869567871094
4.55729866027832
3.0404324531555176
0.4872727394104004
-0.029325485229492188
-4.75413703918457
-2.9893875122070312
-0.6189244985580444
0.5244272947311401
-2.180997133255005
3.127049207687378
3.950197696685791
0.864449143409729
4.669702529907227
2.7811403274536133
1.0867232084274292
-2.160217761993408
2.6126880645751953
2.2783374786376953
1.3622164726257324
-3.4625930786132812
1.3503491878509521
-1.278403401374817
3.1136841773986816
1.5338391065597534
4.809247016906738
0.3338700532913208
0.08208334445953369
2.8757553100585938
0.9509521722793579
1.8449145555496216
1.558346152305603
-1.8419402837753296
0.04176497459411621
-3.2687795162200928
-1.078883409500122
2.8507490158081055
-2.2165071964263916
4.703883171081543
-4.699822425842285
-3.9155685901641846
4.343385219573975
3.6866049766540527
-0.05789220333099365
-2.6847143173217773
-4.236419677734375
-2.3052210807800293
2.418590784072876
-0.9381306171417236
1.9730746746063232
3.3781142234802246
-4.012246131896973
2.67791748046875
-1.431322693824768
-0.3338974714279175
3.7359797954559326
2.867835760116577
4.48231315612793
3.8815760612487793
-4.710967540740967
4.36693000793457
-2.1767024993896484
-0.9321767091751099
-1.7593491077423096
2.4297432899475098
-0.305103063583374
-2.904541015625
4.513674259185791
1.0616058111190796
4.160110950469971
-0.3558635711669922
2.809377908706665
-2.6135687828063965
-0.7963281869888306
-0.5599832534790039
-0.5628228187561035
2.294736385345459
2.3437869548797607
0.5027848482131958
-0.8721482753753662
1.21817946434021
-1.7678409814834595
2.727231502532959
-1.9464445114135742
1.2199002504348755
-1.7052006721496582
0.2866107225418091
3.998279571533203
2.7944536209106445
2.265681743621826
-1.7280811071395874
4.390292167663574
-4.911019802093506
2.8132920265197754
-0.8719557523727417
-4.673073768615723
-0.5282396078109741
0.7257175445556641
2.0507078170776367
2.5517284870147705
-1.7001616954803467
4.078521251678467
0.08484840393066406
-4.9996018409729
-2.280299186706543
-0.8571135997772217
2.5144128799438477
-0.4126244783401489
-3.248964548110962
-1.4127516746520996
3.8354878425598145
1.5879905223846436
0.6615197658538818
-2.2219295501708984
-4.479332447052002
2.6664257049560547
-2.3200833797454834
-1.905120611190796
-3.444908857345581
0.3484189510345459
1.886136531829834
-3.5521464347839355
2.777496576309204
0.7369828224182129
-3.8376502990722656
-1.6639840602874756
1.0980409383773804
-4.627203464508057
1.4218658208847046
2.429565906524658
1.1748486757278442
3.358302116394043
-1.9831401109695435
3.8264811038970947
-4.119195461273193
-1.1382853984832764
2.857714891433716
0.7528984546661377
0.4299253225326538
-0.2833908796310425
-1.0171639919281006
1.8867772817611694
4.188700199127197
-4.4871978759765625
0.2563798427581787
3.929159164428711
-4.416521072387695
-1.0301905870437622
1.7319679260253906
-1.8226826190948486
-0.9771209955215454
-4.213829517364502
-0.27627110481262207
1.2259000539779663
-0.9419214725494385
-0.9863090515136719
-4.476001739501953
-4.501336097717285
-4.94114351272583
0.41863977909088135
3.282797336578369
-4.036204814910889
4.225675582885742
4.521970272064209
-1.8676531314849854
-2.614597797393799
-0.19446074962615967
-0.026314854621887207
2.046002149581909
2.9942595958709717
-1.2693923711776733
-3.3152008056640625
-3.9578981399536133
-1.8898308277130127
0.6337404251098633
-2.557462453842163
1.5874874591827393
-2.489529848098755
1.1755484342575073
-3.544870615005493
-3.1376564502716064
1.1147302389144897
2.9857735633850098
-1.0470980405807495
4.8882341384887695
0.6510770320892334
-0.7983136177062988
0.30958056449890137
-2.603302478790283
-1.4020806550979614
-2.2172093391418457
-2.504741668701172
-2.7402596473693848
-3.0249691009521484
0.48079967498779297
2.5402302742004395
1.8804901838302612
-3.9843809604644775
2.814096212387085
-2.757256507873535
3.2478106021881104
3.8176000118255615
0.6856697797775269
0.9160161018371582
-2.480184555053711
-3.4141440391540527
3.722764253616333
1.5191131830215454
-2.323822498321533
2.7817881107330322
4.116645812988281
3.1871914863586426
-1.3427221775054932
2.542499303817749
-4.905545711517334
-4.23969841003418
1.7103904485702515
-0.8239930868148804
3.3359789848327637
0.35355448722839355
-3.3588571548461914
1.8438959121704102
1.1113941669464111
-2.0813775062561035
0.10560035705566406
-3.9220094680786133
3.8978683948516846
-1.123063564300537
-0.21093904972076416
1.318213939666748
-1.7489051818847656
2.6746535301208496
-2.3524112701416016
-4.113407135009766
-0.9389793872833252
-1.9093185663223267
-3.2855069637298584
-0.18486976623535156
-0.4105842113494873
2.55037784576416
1.2045764923095703
3.7172346115112305
-2.768195867538452
0.943647027015686
-3.276578187942505
-2.166116237640381
1.4102011919021606
-1.4418381452560425
-1.2219446897506714
3.8034181594848633
1.8099558353424072
-4.086508274078369
2.9908804893493652
3.3106327056884766
-1.971232295036316
-4.626330375671387
-1.5259039402008057
2.185866355895996
-0.9049057960510254
-4.566204071044922
-2.2087132930755615
-3.2265865802764893
0.004112124443054199
1.186823844909668
-1.5877234935760498
-3.5975229740142822
4.961129188537598
1.5018278360366821
4.183518409729004
2.910921573638916
4.244783401489258
0.3634476661682129
3.2475929260253906
-4.363564968109131
-4.883000373840332
2.268524646759033
-4.7588725090026855
-0.24831056594848633
1.9059371948242188
-2.15877103805542
4.201401710510254
2.836455821990967
-3.054027557373047
4.359536647796631
0.17004132270812988
1.1131614446640015
1.4301806688308716
-2.2128307819366455
-2.7193446159362793
3.692272901535034
3.152095079421997
4.435929298400879
-3.5294580459594727
2.755537509918213
-0.3976219892501831
-4.540309429168701
-1.2895917892456055
-3.969857692718506
-1.2588059902191162
0.0754249095916748
-1.3227182626724243
-2.2368550300598145
3.0686731338500977
0.4471015930175781
-2.4872703552246094
-2.812753915786743
3.225156784057617
4.439816474914551
-2.849457263946533
2.0765042304992676
-3.587425947189331
1.4951133728027344
2.6359283924102783
-3.769456148147583
-0.6379348039627075
1.391456127166748
4.89389181137085
-3.1888680458068848
0.5859977006912231
-2.0103530883789062
-3.928865909576416
2.5047552585601807
-1.768946647644043
-2.268509864807129
-3.5621495246887207
0.024517178535461426
-2.7392220497131348
0.8271569013595581
3.9890294075012207
1.9257813692092896
-2.010376453399658
-2.945232391357422
0.4561406373977661
-3.0693960189819336
0.4961937665939331
-4.116763591766357
-4.9123005867004395
-2.319957733154297
0.27245640754699707
-4.648866653442383
-3.0294787883758545
4.211496829986572
-2.9893226623535156
-3.41873836517334
-0.9367144107818604
2.5468201637268066
3.864591121673584
1.9300591945648193
0.7521945238113403
1.0389959812164307
0.30092060565948486
-1.833624243736267
-1.6016638278961182
-4.070141315460205
0.018178820610046387
0.5053502321243286
4.842201232910156
-3.3060269355773926
1.8691766262054443
-4.793902397155762
3.508427619934082
-0.13390123844146729
-2.4191641807556152
4.348923683166504
1.9901835918426514
2.2594642639160156
4.899652481079102
-4.43261194229126
4.695858001708984
4.773571968078613
-1.035042405128479
-3.6925792694091797
-2.749657154083252
1.76377534866333
1.867443323135376
-1.3390058279037476
4.329907417297363
-2.4928765296936035
-0.08882105350494385
-0.8273237943649292
1.9753837585449219
-3.637237071990967
-2.231459617614746
3.097425699234009
-0.7936441898345947
1.4097613096237183
-3.014509677886963
4.406846046447754
-1.986325979232788
3.6758570671081543
4.927045822143555
-0.9350740909576416
-3.865330219268799
0.4790836572647095
-3.2016372680664062
-2.4547524452209473
1.0418117046356201
3.228281021118164
3.665766716003418
3.7183141708374023
3.4594507217407227
-2.487630844116211
0.04553794860839844
-3.265265941619873
3.6542482376098633
-1.8976879119873047
-4.481019973754883
3.658600330352783
-2.5565404891967773
-0.8494448661804199
1.6439944505691528
-3.1872963905334473
2.083552360534668
2.363309860229492
2.1212034225463867
-2.813220500946045
-4.7772722244262695
-0.8895272016525269
-4.527091026306152
-4.908411026000977
-4.7606201171875
3.6016554832458496
3.4234089851379395
0.4312252998352051
-4.610037803649902
4.576351165771484
-1.471726894378662
-3.414046287536621
1.1311334371566772
0.01959681510925293
3.46818208694458
-4.323360443115234
3.1706671714782715
-0.2842676639556885
4.66113805770874
-4.195919036865234
3.6787831783294678
1.8924230337142944
0.5979156494140625
-2.7364964485168457
-0.3728973865509033
4.5915913581848145
2.493317127227783
-0.5767905712127686
2.418250560760498
-2.0537428855895996
1.6751909255981445
0.2805054187774658
3.358389139175415
-2.6384103298187256
-4.409337520599365
-0.8226656913757324
-1.3277840614318848
-1.7798453569412231
-3.3379011154174805
-0.06156265735626221
-1.2391895055770874
2.587035894393921
-4.4770965576171875
-2.891244411468506
4.384167671203613
-3.6819052696228027
0.7353115081787109
4.992563724517822
-2.9294872283935547
-1.2817376852035522
0.05032479763031006
-4.030675888061523
4.002959728240967
-4.393177509307861
-3.99369478225708
-3.1285195350646973
-4.8684401512146
3.3797664642333984
-0.6485724449157715
-3.995398998260498
-4.442903518676758
-4.121593475341797
3.8712072372436523
-2.7259998321533203
2.115457534790039
-4.052382469177246
2.941999912261963
-4.386082649230957
4.372426986694336
-0.7282298803329468
2.03232479095459
0.9116202592849731
-3.7359964847564697
3.0932564735412598
-1.2650960683822632
-2.548435926437378
1.763865351676941
-3.1646788120269775
-2.6865220069885254
-3.197370767593384
2.135488510131836
4.461965084075928
3.551164150238037
3.419145345687866
1.4712262153625488
0.013225078582763672
-3.4661431312561035
1.0649466514587402
3.8050074577331543
2.46091365814209
1.3168108463287354
1.696358323097229
-1.3887965679168701
4.550743579864502
2.9101853370666504
-3.491713523864746
1.0028183460235596
2.2508537769317627
1.1662250757217407
-3.5327510833740234
-0.5180156230926514
-2.1605615615844727
4.724555015563965
-0.5077379941940308
3.2704038619995117
-4.532861709594727
2.7215981483459473
-3.6787514686584473
-4.316064834594727
4.560964584350586
-3.674623489379883
2.495555877685547
1.8720877170562744
3.9399166107177734
-0.07059216499328613
0.44307470321655273
2.709249973297119
-0.36147356033325195
-1.0785281658172607
1.6323083639144897
0.42076945304870605
-2.2600269317626953
-1.9913297891616821
2.6528239250183105
1.4054137468338013
1.9679969549179077
0.08440136909484863
1.955379843711853
2.9595251083374023
-4.754164695739746
0.3020364046096802
2.117375135421753
0.5317771434783936
-2.8239309787750244
-3.608289957046509
-0.19783735275268555
